{"learner":{"attributes":{"best_iteration":"99","best_ntree_limit":"100","scikit_learn":"{\"use_label_encoder\": false, \"n_estimators\": 100, \"objective\": \"binary:logistic\", \"max_depth\": null, \"learning_rate\": null, \"verbosity\": null, \"booster\": null, \"tree_method\": null, \"gamma\": null, \"min_child_weight\": null, \"max_delta_step\": null, \"subsample\": null, \"colsample_bytree\": null, \"colsample_bylevel\": null, \"colsample_bynode\": null, \"reg_alpha\": null, \"reg_lambda\": null, \"scale_pos_weight\": null, \"base_score\": null, \"missing\": NaN, \"num_parallel_tree\": null, \"random_state\": null, \"n_jobs\": null, \"monotone_constraints\": null, \"interaction_constraints\": null, \"importance_type\": null, \"gpu_id\": null, \"validate_parameters\": null, \"predictor\": null, \"enable_categorical\": false, \"kwargs\": {\"eval_metric\": \"logloss\"}, \"classes_\": [0.0, 1.0], \"n_classes_\": 2, \"_estimator_type\": \"classifier\"}"},"feature_names":["T90","z","D_L","F_g","HR","E_iso","L_pk","F_pk1","P_pk4","alpha_band","beta_band","E_P_band","alpha_cpl","E_P_cpl","alpha_spl","spectral_lag","theta_j","Gamma0","log_t_burst","t_b","F_X11hr","beta_X11hr","F_Opt11hr","T_ai","L_a","offset","metallicity","A_V","SFR","SSFR","Age","Mass"],"feature_types":["float","float","float","float","float","float","float","float","float","float","float","float","float","float","float","float","float","float","float","float","float","float","float","float","float","float","float","float","float","float","float","float"],"gradient_booster":{"model":{"gbtree_model_param":{"num_trees":"100","size_leaf_vector":"0"},"tree_info":[0,0,0,0,0,0,0,0,0,0,0,0,0,0,0,0,0,0,0,0,0,0,0,0,0,0,0,0,0,0,0,0,0,0,0,0,0,0,0,0,0,0,0,0,0,0,0,0,0,0,0,0,0,0,0,0,0,0,0,0,0,0,0,0,0,0,0,0,0,0,0,0,0,0,0,0,0,0,0,0,0,0,0,0,0,0,0,0,0,0,0,0,0,0,0,0,0,0,0,0],"trees":[{"base_weights":[-1.1197741E-8,1.8468411E0,-1.6925191E0,5.7706773E-1,1.8664001E0,1.2526515E0,-1.9313532E0,1.8822716E0,6.870188E-1,2.145895E-1,1.6045631E0,-1.9835366E0,2.9530108E-1,-1.0984294E0,1.2399513E0,1.2399513E0,-1.0398365E0],"categories":[],"categories_nodes":[],"categories_segments":[],"categories_sizes":[],"default_left":[true,false,false,false,true,false,true,false,false,false,false,false,false,false,false,false,false],"id":0,"left_children":[1,3,5,-1,7,9,11,-1,-1,13,-1,-1,15,-1,-1,-1,-1],"loss_changes":[8.0177124E2,1.9692383E0,9.656473E1,0E0,9.5962524E-1,3.5447807E0,1.5016602E1,0E0,0E0,6.545007E0,0E0,0E0,5.9740753E0,0E0,0E0,0E0,0E0],"parents":[2147483647,0,0,1,1,2,2,4,4,5,5,6,6,9,9,12,12],"right_children":[2,4,6,-1,8,10,12,-1,-1,14,-1,-1,16,-1,-1,-1,-1],"split_conditions":[3.7404436E-1,1.916446E0,-1.0506375E0,1.7312032E-1,2.456E0,1.8060001E1,2.9322891E0,5.6468153E-1,2.0610565E-1,3.584928E-1,4.8136896E-1,-5.95061E-1,7.617632E-1,-3.2952884E-1,3.7198538E-1,3.7198538E-1,-3.1195098E-1],"split_indices":[0,13,5,0,10,26,13,0,0,7,0,0,4,0,0,0,0],"split_type":[0,0,0,0,0,0,0,0,0,0,0,0,0,0,0,0,0],"sum_hessian":[2.545E2,1.2165808E2,1.3284192E2,2.308272E0,1.1934981E2,9.646147E0,1.2319577E2,1.1717691E2,2.1728997E0,2.8497612E0,6.796386E0,1.20481384E2,2.7143888E0,1.2183511E0,1.6314102E0,1.6314102E0,1.0829787E0],"tree_param":{"num_deleted":"0","num_feature":"32","num_nodes":"17","size_leaf_vector":"0"}},{"base_weights":[2.8188087E-3,1.4173067E0,-1.3029205E0,3.5616037E-1,1.4333625E0,9.7490054E-1,-1.4948056E0,1.4499418E0,3.589859E-1,1.2930231E-1,1.2459415E0,-1.5376033E0,2.2900029E-1,-9.91371E-1,9.810636E-1,1.033619E0,-8.900277E-1],"categories":[],"categories_nodes":[],"categories_segments":[],"categories_sizes":[],"default_left":[true,false,false,false,true,false,true,false,false,true,false,false,false,false,false,false,false],"id":1,"left_children":[1,3,5,-1,7,9,11,-1,-1,13,-1,-1,15,-1,-1,-1,-1],"loss_changes":[4.376902E2,1.4275513E0,5.5317734E1,0E0,1.4696045E0,2.171958E0,8.766022E0,0E0,0E0,4.3962326E0,0E0,0E0,4.191344E0,0E0,0E0,0E0,0E0],"parents":[2147483647,0,0,1,1,2,2,4,4,5,5,6,6,9,9,12,12],"right_children":[2,4,6,-1,8,10,12,-1,-1,14,-1,-1,16,-1,-1,-1,-1],"split_conditions":[3.7404436E-1,2.4698396E0,-1.0506375E0,1.0684811E-1,6.5824445E2,-6.2930584E-1,2.9322891E0,4.3498254E-1,1.0769577E-1,1.75E0,3.7378246E-1,-4.61281E-1,7.617632E-1,-2.974113E-1,2.943191E-1,3.100857E-1,-2.6700833E-1],"split_indices":[0,11,5,0,15,7,13,0,0,12,0,0,4,0,0,0,0],"split_type":[0,0,0,0,0,0,0,0,0,0,0,0,0,0,0,0,0],"sum_hessian":[2.3497986E2,1.1275193E2,1.2222792E2,2.0261207E0,1.1072581E2,9.179515E0,1.1304841E2,1.0869885E2,2.0269573E0,2.5866618E0,6.5928526E0,1.104151E2,2.633304E0,1.0462242E0,1.5404377E0,1.5762509E0,1.0570532E0],"tree_param":{"num_deleted":"0","num_feature":"32","num_nodes":"17","size_leaf_vector":"0"}},{"base_weights":[2.5448701E-3,1.1953294E0,-1.1172987E0,2.0199113E-1,1.2153109E0,7.9687744E-1,-1.2924719E0,2.913219E-1,1.2316173E0,3.8709067E-2,1.0784532E0,-1.3332742E0,1.8403932E-1,1.2409527E0,3.987235E-1,-9.151805E-1,8.661458E-1,4.138127E-1,1.250339E0],"categories":[],"categories_nodes":[],"categories_segments":[],"categories_sizes":[],"default_left":[true,false,false,false,false,false,true,false,true,false,false,false,false,false,false,false,false,false,false],"id":2,"left_children":[1,3,5,-1,7,9,11,-1,13,15,-1,-1,-1,17,-1,-1,-1,-1,-1],"loss_changes":[2.694774E2,1.693512E0,3.592093E1,0E0,1.08107E0,1.9527493E0,6.011612E0,0E0,2.3294067E-1,3.6083274E0,0E0,0E0,0E0,1.9754028E-1,0E0,0E0,0E0,0E0,0E0],"parents":[2147483647,0,0,1,1,2,2,4,4,5,5,6,6,8,8,9,9,13,13],"right_children":[2,4,6,-1,8,10,12,-1,14,16,-1,-1,-1,18,-1,-1,-1,-1,-1],"split_conditions":[3.7404436E-1,1.916446E0,-1.0506375E0,6.059734E-2,2.4698396E0,1.8060001E1,2.9322891E0,8.739658E-2,3.1154191E-1,3.584928E-1,3.2353598E-1,-3.999823E-1,5.52118E-2,3.95E-1,1.1961706E-1,-2.7455416E-1,2.5984374E-1,1.2414382E-1,3.7510172E-1],"split_indices":[0,13,5,0,11,26,13,0,0,7,0,0,0,9,0,0,0,0,0],"split_type":[0,0,0,0,0,0,0,0,0,0,0,0,0,0,0,0,0,0,0],"sum_hessian":[1.9974521E2,9.668996E1,1.0305525E2,2.1256688E0,9.4564285E1,8.342694E0,9.471256E1,1.967077E0,9.2597206E1,2.567348E0,5.7753463E0,9.2260025E1,2.4525325E0,9.108636E1,1.5108532E0,1.1432909E0,1.424057E0,1.5279443E0,8.955841E1],"tree_param":{"num_deleted":"0","num_feature":"32","num_nodes":"19","size_leaf_vector":"0"}},{"base_weights":[3.3656056E-3,1.0507234E0,-1.0033177E0,-1.2479568E-2,1.0716188E0,6.77037E-1,-1.1717535E0,1.0914543E0,1.252572E-1,2.7063098E-2,9.268655E-1,-1.2166235E0,1.4542753E-1,1.1026161E0,2.2722402E-1,-8.0136025E-1,7.6669466E-1,8.695984E-1,-8.0088824E-1,1.1231244E0,6.373613E-1,8.922965E-3,8.298158E-1],"categories":[],"categories_nodes":[],"categories_segments":[],"categories_sizes":[],"default_left":[true,false,false,false,true,false,true,true,false,false,false,false,false,true,false,false,false,false,false,false,false,false,false],"id":3,"left_children":[1,3,5,-1,7,9,11,13,-1,15,-1,-1,17,19,-1,-1,-1,-1,-1,-1,21,-1,-1],"loss_changes":[1.7506572E2,1.8211823E0,2.475644E1,0E0,1.3615875E0,1.3303761E0,4.7465973E0,5.023575E-1,0E0,2.6656308E0,0E0,0E0,3.0540876E0,1.6906738E-2,0E0,0E0,0E0,0E0,0E0,0E0,6.6436005E-1,0E0,0E0],"parents":[2147483647,0,0,1,1,2,2,4,4,5,5,6,6,7,7,9,9,12,12,13,13,20,20],"right_children":[2,4,6,-1,8,10,12,14,-1,16,-1,-1,18,20,-1,-1,-1,-1,-1,-1,22,-1,-1],"split_conditions":[3.7404436E-1,-2.4014306E-1,-1.0506375E0,-3.7438704E-3,2.456E0,1.8060001E1,2.9322891E0,2.1393766E0,3.757716E-2,3.584928E-1,2.7805966E-1,-3.6498708E-1,7.617632E-1,2.9856958E0,6.816721E-2,-2.4040808E-1,2.3000841E-1,2.6087952E-1,-2.4026649E-1,3.369373E-1,3.1527228E0,2.6768898E-3,2.4894474E-1],"split_indices":[0,4,5,0,10,26,13,17,0,7,0,0,4,13,0,0,0,0,0,0,13,0,0],"split_type":[0,0,0,0,0,0,0,0,0,0,0,0,0,0,0,0,0,0,0,0,0,0,0],"sum_hessian":[1.6404031E2,8.0374535E1,8.366578E1,1.5569319E0,7.8817604E1,7.347352E0,7.631843E1,7.7049355E1,1.7682486E0,2.347704E0,4.999648E0,7.38781E1,2.4403272E0,7.579461E1,1.2547462E0,1.0680157E0,1.2796882E0,1.4283488E0,1.0119784E0,7.124035E1,4.5542607E0,1.3130407E0,3.2412198E0],"tree_param":{"num_deleted":"0","num_feature":"32","num_nodes":"23","size_leaf_vector":"0"}},{"base_weights":[3.8341023E-3,9.366663E-1,-9.260128E-1,1.420977E-3,9.6374696E-1,5.848381E-1,-1.0941759E0,6.1376654E-2,9.8671407E-1,-7.484883E-2,8.227612E-1,-1.1420454E0,1.1814122E-1,1.00029E0,8.73976E-2,9.509476E-1,2.5522673E-1,2.1590051E-1,1.0124888E0,1.0392613E0,4.6584123E-1],"categories":[],"categories_nodes":[],"categories_segments":[],"categories_sizes":[],"default_left":[true,false,false,false,false,false,true,false,true,false,true,false,false,false,false,false,false,false,true,false,false],"id":4,"left_children":[1,3,5,-1,7,9,11,-1,13,-1,15,-1,-1,17,-1,-1,-1,-1,19,-1,-1],"loss_changes":[1.1672979E2,1.7000504E0,1.7763618E1,0E0,1.2924805E0,1.2233548E0,3.6746979E0,0E0,6.8906784E-1,0E0,1.5911841E-1,0E0,0E0,3.7999344E-1,0E0,0E0,0E0,0E0,4.1342163E-1,0E0,0E0],"parents":[2147483647,0,0,1,1,2,2,4,4,5,5,6,6,8,8,10,10,13,13,18,18],"right_children":[2,4,6,-1,8,10,12,-1,14,-1,16,-1,-1,18,-1,-1,-1,-1,20,-1,-1],"split_conditions":[3.7404436E-1,1.916446E0,-1.0506375E0,4.262931E-4,2.4698396E0,-6.2930584E-1,2.9322891E0,1.8412996E-2,1.425E0,-2.245465E-2,1.1082955E-2,-3.4261364E-1,3.5442367E-2,3.95E-1,2.621928E-2,2.8528428E-1,7.656802E-2,6.4770155E-2,1.69E0,3.1177843E-1,1.3975237E-1],"split_indices":[0,13,5,0,11,7,13,0,12,0,3,0,0,9,0,0,0,0,14,0,0],"split_type":[0,0,0,0,0,0,0,0,0,0,0,0,0,0,0,0,0,0,0,0,0],"sum_hessian":[1.3257573E2,6.617797E1,6.6397766E1,1.8919209E0,6.428605E1,6.401957E0,5.9995808E1,1.6867437E0,6.2599304E1,1.878597E0,4.5233603E0,5.7772568E1,2.223242E0,6.155776E1,1.0415455E0,3.1388302E0,1.3845301E0,1.2290285E0,6.0328728E1,5.6652954E1,3.6757758E0],"tree_param":{"num_deleted":"0","num_feature":"32","num_nodes":"21","size_leaf_vector":"0"}},{"base_weights":[4.947213E-3,8.598664E-1,-8.4245527E-1,-1.3251079E-2,8.9523286E-1,5.033731E-1,-1.0137091E0,-1.3159378E-1,1.1141398E-1,3.0999992E-2,9.169204E-1,-8.7350115E-2,7.547425E-1,-1.0682691E0,9.401282E-2,9.458262E-1,3.828106E-1,1.1348061E-1,9.024683E-1,1.9850907E-1,-1.1078748E0,9.788267E-1,3.9018345E-1,-7.3038645E-2,7.1388394E-1,9.9658877E-1,3.3636048E-1,8.059872E-1,-4.7611985E-1],"categories":[],"categories_nodes":[],"categories_segments":[],"categories_sizes":[],"default_left":[true,false,false,false,false,false,true,false,false,false,true,false,true,false,false,true,false,false,false,false,false,true,true,false,false,false,false,false,false],"id":5,"left_children":[1,3,5,7,9,11,13,-1,-1,-1,15,-1,17,19,-1,21,23,-1,-1,-1,-1,25,27,-1,-1,-1,-1,-1,-1],"loss_changes":[7.89547E1,1.6870117E0,1.3125645E1,6.035594E-2,9.490509E-1,1.0826292E0,3.05513E0,0E0,0E0,0E0,4.228325E-1,0E0,3.6241603E-1,2.5616646E0,0E0,4.8997116E-1,6.995984E-1,0E0,0E0,0E0,0E0,1.6941452E-1,1.9429517E0,0E0,0E0,0E0,0E0,0E0,0E0],"parents":[2147483647,0,0,1,1,2,2,3,3,4,4,5,5,6,6,10,10,12,12,13,13,15,15,16,16,21,21,22,22],"right_children":[2,4,6,8,10,12,14,-1,-1,-1,16,-1,18,20,-1,22,24,-1,-1,-1,-1,26,28,-1,-1,-1,-1,-1,-1],"split_conditions":[3.1154191E-1,-6.802898E-2,-1.0506375E0,2.198229E0,4.2000002E-1,1.8060001E1,2.9322891E0,-3.9478134E-2,3.3424195E-2,9.299998E-3,2.9856958E0,-2.6205035E-2,1.265E0,-8.168768E-1,2.8203847E-2,1.69E0,8.453531E-1,3.4044184E-2,2.707405E-1,5.955272E-2,-3.3236244E-1,1.211E2,-1.5138534E-1,-2.1911595E-2,2.141652E-1,2.9897663E-1,1.0090815E-1,2.4179617E-1,-1.4283596E-1],"split_indices":[0,4,5,8,9,26,13,0,0,0,13,0,12,3,0,14,3,0,0,0,0,15,0,0,0,0,0,0,0],"split_type":[0,0,0,0,0,0,0,0,0,0,0,0,0,0,0,0,0,0,0,0,0,0,0,0,0,0,0,0,0],"sum_hessian":[1.06984184E2,5.3248573E1,5.373561E1,2.0972638E0,5.115131E1,5.8469543E0,4.7888657E1,1.047402E0,1.0498619E0,1.3116686E0,4.983964E1,1.9401248E0,3.9068294E0,4.5674606E1,2.214053E0,4.6549557E1,3.2900834E0,1.0625591E0,2.8442702E0,1.2630825E0,4.4411522E1,4.3220985E1,3.3285747E0,1.7121043E0,1.5779791E0,4.1521847E1,1.6991369E0,2.2961197E0,1.0324548E0],"tree_param":{"num_deleted":"0","num_feature":"32","num_nodes":"29","size_leaf_vector":"0"}},{"base_weights":[8.674838E-3,7.705033E-1,-7.773432E-1,-1.3762684E-1,8.091425E-1,4.339589E-1,-9.57674E-1,8.3406544E-1,-2.643096E-2,-1.590813E-1,6.865157E-1,-1.0331776E0,5.3367727E-2,9.118075E-1,5.319546E-1,8.5636103E-1,6.055175E-2,1.6633694E-1,-1.081492E0,-6.2585586E-1,7.466082E-1,9.520174E-1,1.106735E-1,-2.0771216E-1,7.464261E-1,9.7841126E-1,1.4246424E-1,-8.373041E-1,5.653141E-1,9.58562E-1,8.528874E-3],"categories":[],"categories_nodes":[],"categories_segments":[],"categories_sizes":[],"default_left":[true,false,false,false,true,false,true,true,false,false,false,false,false,true,false,false,false,false,false,false,false,true,false,true,true,false,false,false,false,false,false],"id":6,"left_children":[1,3,5,-1,7,9,11,13,-1,-1,15,17,19,21,23,-1,-1,-1,-1,-1,-1,25,-1,27,29,-1,-1,-1,-1,-1,-1],"loss_changes":[5.3182426E1,1.6937122E0,9.965178E0,0E0,9.25848E-1,1.0607803E0,2.9838142E0,5.054779E-1,0E0,0E0,4.4186592E-1,2.2516289E0,2.170317E0,9.3003845E-1,1.9051032E0,0E0,0E0,0E0,0E0,0E0,0E0,5.117588E-1,0E0,2.0609467E0,1.3645988E0,0E0,0E0,0E0,0E0,0E0,0E0],"parents":[2147483647,0,0,1,1,2,2,4,4,5,5,6,6,7,7,10,10,11,11,12,12,13,13,14,14,21,21,23,23,24,24],"right_children":[2,4,6,-1,8,10,12,14,-1,-1,16,18,20,22,24,-1,-1,-1,-1,-1,-1,26,-1,28,30,-1,-1,-1,-1,-1,-1],"split_conditions":[3.1154191E-1,1.916446E0,-1.0506375E0,-4.1288055E-2,2.555E0,-6.2930584E-1,-5.833627E-1,-6.170635E-2,-7.929289E-3,-4.7724392E-2,9.536743E-7,-8.168768E-1,1.3390001E1,3.1222992E0,6.296844E-1,2.5690833E-1,1.8165527E-2,4.9901083E-2,-3.244476E-1,-1.8775676E-1,2.2398247E-1,2.01E0,3.3202052E-2,1.01E0,2.7230353E0,2.935234E-1,4.2739272E-2,-2.5119126E-1,1.6959424E-1,2.8756863E-1,2.5586623E-3],"split_indices":[0,13,5,0,10,7,16,0,0,0,20,3,1,13,4,0,0,0,0,0,0,10,0,12,13,0,0,0,0,0,0],"split_type":[0,0,0,0,0,0,0,0,0,0,0,0,0,0,0,0,0,0,0,0,0,0,0,0,0,0,0,0,0,0,0],"sum_hessian":[8.6813156E1,4.4094955E1,4.27182E1,1.6950325E0,4.239992E1,5.353264E0,3.7364937E1,4.1173626E1,1.2262968E0,1.709418E0,3.6438458E0,3.474809E1,2.6168475E0,3.1141796E1,1.003183E1,2.576646E0,1.0671996E0,1.2508202E0,3.349727E1,1.3708842E0,1.2459633E0,2.9474115E1,1.6676807E0,2.2620423E0,7.7697873E0,2.8341516E1,1.1325995E0,1.2008544E0,1.0611879E0,5.802576E0,1.9672112E0],"tree_param":{"num_deleted":"0","num_feature":"32","num_nodes":"31","size_leaf_vector":"0"}},{"base_weights":[1.2587874E-2,6.8742585E-1,-7.180722E-1,4.8082358E-1,1.0312372E0,3.7334448E-1,-9.098107E-1,-7.444815E-1,6.039447E-1,-1.8491173E-1,6.159187E-1,-9.904023E-1,5.1066894E-2,7.525474E-1,-1.5176694E-1,2.8363973E-2,8.057811E-1,1.3927443E-1,-1.0485914E0,-5.751728E-1,6.7067647E-1,8.447884E-1,-4.0259844E-1,-8.0136466E-1,4.3026972E-1,9.06703E-1,-2.1996971E-2],"categories":[],"categories_nodes":[],"categories_segments":[],"categories_sizes":[],"default_left":[true,true,false,false,false,true,true,false,true,false,false,false,false,true,false,false,false,false,false,false,false,true,false,false,false,false,false],"id":7,"left_children":[1,3,5,7,-1,9,11,-1,13,-1,15,17,19,21,23,-1,-1,-1,-1,-1,-1,25,-1,-1,-1,-1,-1],"loss_changes":[3.5878452E1,2.1904278E0,7.652626E0,4.295984E0,0E0,9.170414E-1,2.374878E0,0E0,2.7780075E0,0E0,4.6411335E-1,1.9696026E0,1.6559845E0,2.4700985E0,2.133177E0,0E0,0E0,0E0,0E0,0E0,0E0,1.0307398E0,0E0,0E0,0E0,0E0,0E0],"parents":[2147483647,0,0,1,1,2,2,3,3,5,5,6,6,8,8,10,10,11,11,12,12,13,13,14,14,21,21],"right_children":[2,4,6,8,-1,10,12,-1,14,-1,16,18,20,22,24,-1,-1,-1,-1,-1,-1,26,-1,-1,-1,-1,-1],"split_conditions":[3.1154191E-1,-1.8225813E-1,-1.0506375E0,8.164734E-2,3.0937117E-1,9.5000005E-1,-5.833627E-1,-2.2334446E-1,2.7230353E0,-5.547352E-2,1.0694096E1,-8.168768E-1,1.3390001E1,6.565E-1,1.3062825E0,8.509193E-3,2.4173434E-1,4.178233E-2,-3.1457743E-1,-1.7255184E-1,2.0120294E-1,2.555E0,-1.2077954E-1,-2.404094E-1,1.2908092E-1,2.7201092E-1,-6.5990915E-3],"split_indices":[0,25,5,4,0,12,16,0,13,0,31,3,1,1,4,0,0,0,0,0,0,10,0,0,0,0,0],"split_type":[0,0,0,0,0,0,0,0,0,0,0,0,0,0,0,0,0,0,0,0,0,0,0,0,0,0,0],"sum_hessian":[7.0763275E1,3.6817646E1,3.3945625E1,2.449605E1,1.2321595E1,4.930877E0,2.901475E1,1.7758635E0,2.2720186E1,1.5655825E0,3.3652945E0,2.6741165E1,2.2735844E0,1.899016E1,3.730026E0,1.102586E0,2.2627084E0,1.2416868E0,2.5499477E1,1.1664103E0,1.107174E0,1.7834694E1,1.1554668E0,1.5846293E0,2.1453967E0,1.6602707E1,1.2319864E0],"tree_param":{"num_deleted":"0","num_feature":"32","num_nodes":"27","size_leaf_vector":"0"}},{"base_weights":[1.2807072E-2,5.61381E-1,-7.166319E-1,3.633203E-1,9.715095E-1,4.7622597E-1,-8.858295E-1,-2.5462797E-1,6.1313134E-1,4.1746937E-2,6.9598556E-1,-1.0244844E0,-3.791649E-2,5.183274E-1,-1.6358907E0,8.05584E-1,-1.9479911E-1,4.1575515E-1,-6.377911E-1,8.069345E-1,-6.0860246E-2,8.6740905E-1,6.786851E-2,-6.190936E-1,4.1497624E-1,4.0749196E-2,5.894246E-1,1.311883E-1,9.3400043E-1],"categories":[],"categories_nodes":[],"categories_segments":[],"categories_sizes":[],"default_left":[true,true,false,false,false,true,true,false,true,false,false,false,false,true,false,true,false,false,false,false,false,false,false,false,false,false,false,false,false],"id":8,"left_children":[1,3,5,7,-1,9,11,13,15,-1,-1,-1,17,19,-1,21,23,25,-1,-1,-1,27,-1,-1,-1,-1,-1,-1,-1],"loss_changes":[2.4130224E1,2.4417877E0,5.6476164E0,3.9842556E0,0E0,3.4014398E-1,2.6681824E0,9.2242565E0,2.9483876E0,0E0,0E0,0E0,1.4284464E0,1.0169318E0,0E0,6.1130524E-1,1.3588228E0,1.7391568E-1,0E0,0E0,0E0,5.3798294E-1,0E0,0E0,0E0,0E0,0E0,0E0,0E0],"parents":[2147483647,0,0,1,1,2,2,3,3,5,5,6,6,7,7,8,8,12,12,13,13,15,15,16,16,17,17,21,21],"right_children":[2,4,6,8,-1,10,12,14,16,-1,-1,-1,18,20,-1,22,24,26,-1,-1,-1,28,-1,-1,-1,-1,-1,-1,-1],"split_conditions":[5.2631956E-1,-1.8225813E-1,2.5849998E-1,6.393569E-1,2.9145285E-1,5.3E-1,2.5276127E0,-4.962692E-1,4.8000002E-1,1.2524081E-2,2.0879568E-1,-3.0734533E-1,2.0645493E-1,-1.2590599E-1,-4.9076724E-1,2.505E0,1.3062825E0,1.4547889E0,-1.9133733E-1,2.4208035E-1,-1.8258074E-2,3.05E-1,2.0360554E-2,-1.8572809E-1,1.24492876E-1,1.2224759E-2,1.7682739E-1,3.9356492E-2,2.8020015E-1],"split_indices":[0,25,1,4,0,27,13,3,12,0,0,0,7,0,0,10,4,3,0,0,0,12,0,0,0,0,0,0,0],"split_type":[0,0,0,0,0,0,0,0,0,0,0,0,0,0,0,0,0,0,0,0,0,0,0,0,0,0,0,0,0],"sum_hessian":[5.8297386E1,3.340533E1,2.4892056E1,2.3798393E1,9.6069355E0,2.866733E0,2.2025324E1,6.8455443E0,1.695285E1,1.3626505E0,1.5040824E0,1.8750849E1,3.2744737E0,4.7898726E0,2.0556715E0,1.3693823E1,3.2590265E0,2.0392015E0,1.2352722E0,2.9344363E0,1.8554364E0,1.2472729E1,1.2210945E0,1.9127874E0,1.3462391E0,1.0362513E0,1.0029501E0,1.2809416E0,1.1191787E1],"tree_param":{"num_deleted":"0","num_feature":"32","num_nodes":"29","size_leaf_vector":"0"}},{"base_weights":[1.7406112E-2,4.9255326E-1,-6.598967E-1,3.0678296E-1,9.209898E-1,4.206984E-1,-8.396441E-1,4.9435166E-1,-3.48773E-1,-4.5234755E-2,6.183046E-1,-9.969769E-1,-3.0698216E-2,6.31072E-1,-1.5181585E-1,2.5941277E-1,-1.2587653E0,3.6893007E-1,-5.8327955E-1,7.5004834E-1,-1.11451805E-1,3.6838627E-1,-5.5806863E-1,-3.187925E-1,6.702817E-1,8.94653E-1,2.584538E-1],"categories":[],"categories_nodes":[],"categories_segments":[],"categories_sizes":[],"default_left":[true,true,false,true,false,false,true,true,false,false,false,false,false,true,false,false,false,false,false,true,false,false,false,false,false,false,false],"id":9,"left_children":[1,3,5,7,-1,9,11,13,15,-1,-1,-1,17,19,21,23,-1,-1,-1,25,-1,-1,-1,-1,-1,-1,-1],"loss_changes":[1.6295057E1,2.0842595E0,4.4102373E0,2.90739E0,0E0,3.635766E-1,2.291132E0,1.6601963E0,3.389623E0,0E0,0E0,0E0,1.0989411E0,1.3918953E0,1.0294719E0,1.1987609E0,0E0,0E0,0E0,6.8533325E-1,0E0,0E0,0E0,0E0,0E0,0E0,0E0],"parents":[2147483647,0,0,1,1,2,2,3,3,5,5,6,6,7,7,8,8,12,12,13,13,14,14,15,15,19,19],"right_children":[2,4,6,8,-1,10,12,14,16,-1,-1,-1,18,20,22,24,-1,-1,-1,26,-1,-1,-1,-1,-1,-1,-1],"split_conditions":[5.2631956E-1,-1.8225813E-1,2.5849998E-1,8.0432266E-2,2.7629694E-1,6.825942E-1,2.5276127E0,7.1500003E-1,4.7986174E-1,-1.3570427E-2,1.8549138E-1,-2.990931E-1,2.0645493E-1,1.75E-1,5.9691197E-1,-3.570056E-1,-3.776296E-1,1.1067902E-1,-1.7498387E-1,-1.4178963E-1,-3.3435542E-2,1.10515885E-1,-1.674206E-1,-9.563775E-2,2.0108452E-1,2.6839593E-1,7.7536136E-2],"split_indices":[0,25,1,0,0,25,13,12,8,0,0,0,7,9,4,7,0,0,0,0,0,0,0,0,0,0,0],"split_type":[0,0,0,0,0,0,0,0,0,0,0,0,0,0,0,0,0,0,0,0,0,0,0,0,0,0,0],"sum_hessian":[4.862432E1,2.873716E1,1.9887161E1,2.1242468E1,7.494693E0,2.6450865E0,1.7242075E1,1.6707886E1,4.534581E0,1.0173578E0,1.6277287E0,1.4240068E1,3.0020072E0,1.3809371E1,2.8985147E0,3.1465437E0,1.3880377E0,1.9349778E0,1.0670296E0,1.1893512E1,1.9158595E0,1.3118784E0,1.5866363E0,1.4001918E0,1.746352E0,8.556638E0,3.3368735E0],"tree_param":{"num_deleted":"0","num_feature":"32","num_nodes":"27","size_leaf_vector":"0"}},{"base_weights":[1.6189747E-2,4.2575294E-1,-6.053218E-1,2.5227827E-1,8.6930764E-1,2.398267E-1,-8.304307E-1,-1.7014673E-1,5.060529E-1,6.0677445E-1,-8.879184E-2,-9.5167696E-1,1.3747504E-1,4.391901E-1,-1.2453144E0,7.4513423E-1,-8.8030994E-2,-2.3464556E-1,1.1365453E-1,-1.2337483E-1,6.02751E-1,-3.6266994E-1,-1.4796026E0,8.854522E-1,1.11531414E-1,-4.5100248E-1,4.1842815E-1,7.5308985E-1,9.2674315E-2],"categories":[],"categories_nodes":[],"categories_segments":[],"categories_sizes":[],"default_left":[true,true,false,false,false,false,true,false,true,false,false,false,false,false,false,true,false,false,false,false,true,false,false,false,false,false,false,false,false],"id":10,"left_children":[1,3,5,7,-1,9,11,13,15,-1,17,-1,-1,19,21,23,25,-1,-1,-1,27,-1,-1,-1,-1,-1,-1,-1,-1],"loss_changes":[1.0962629E1,1.7764077E0,3.455831E0,2.2358656E0,0E0,5.8160037E-1,1.7434626E0,5.967818E0,1.8806806E0,0E0,1.2059839E-1,0E0,0E0,6.283395E-1,1.3626242E-1,7.207613E-1,1.027236E0,0E0,0E0,0E0,3.009262E-1,0E0,0E0,0E0,0E0,0E0,0E0,0E0,0E0],"parents":[2147483647,0,0,1,1,2,2,3,3,5,5,6,6,7,7,8,8,10,10,13,13,14,14,15,15,16,16,20,20],"right_children":[2,4,6,8,-1,10,12,14,16,-1,18,-1,-1,20,22,24,26,-1,-1,-1,28,-1,-1,-1,-1,-1,-1,-1,-1],"split_conditions":[5.2631956E-1,-1.8225813E-1,-1.0506375E0,7.7232134E-1,2.6079232E-1,3.028136E0,-5.833627E-1,-4.2265707E-1,2.7302608E0,1.8203235E-1,1.75E0,-2.855031E-1,4.1242514E-2,1.15E0,8.0374044E-1,1.75E-1,7.8999996E-1,-7.0393674E-2,3.409636E-2,-3.701245E-2,1.69E0,-1.08800985E-1,-4.438808E-1,2.6563567E-1,3.3459425E-2,-1.3530076E-1,1.2552845E-1,2.2592697E-1,2.7802296E-2],"split_indices":[0,25,5,4,0,30,16,3,13,0,12,0,0,12,8,9,12,0,0,0,14,0,0,0,0,0,0,0,0],"split_type":[0,0,0,0,0,0,0,0,0,0,0,0,0,0,0,0,0,0,0,0,0,0,0,0,0,0,0,0,0],"sum_hessian":[4.1054543E1,2.493673E1,1.6117815E1,1.905361E1,5.88312E0,3.376333E0,1.2741481E1,7.2744064E0,1.1779203E1,1.1952413E0,2.1810915E0,1.1337978E1,1.4035033E0,5.020577E0,2.2538297E0,8.217799E0,3.5614033E0,1.1752937E0,1.005798E0,1.1862357E0,3.8343413E0,1.0072261E0,1.2466036E0,6.402427E0,1.8153726E0,2.1383672E0,1.4230362E0,2.5935109E0,1.2408303E0],"tree_param":{"num_deleted":"0","num_feature":"32","num_nodes":"29","size_leaf_vector":"0"}},{"base_weights":[1.7646112E-2,4.789328E-1,-4.4236654E-1,1.5975817E-1,6.3535696E-1,2.1185412E-1,-7.2733676E-1,6.6685885E-1,-8.550435E-1,7.602312E-1,-1.4337531E-2,-1.5923063E-1,5.7681215E-1,5.0057154E-2,-8.9444613E-1,8.212524E-1,1.9495927E-2,8.7937415E-1,1.9331001E-1,3.7673065E-1,-7.5586075E-1,-2.3083426E-1,3.4647122E-1,-9.515814E-2,-9.651907E-1,2.7531984E-1,9.327115E-1,2.673986E-1,2.303666E-2,-1.0505702E0,-1.0306255E-1],"categories":[],"categories_nodes":[],"categories_segments":[],"categories_sizes":[],"default_left":[true,false,false,false,true,true,false,false,false,true,false,true,false,true,false,false,false,false,false,false,false,false,false,false,true,false,false,false,false,false,false],"id":11,"left_children":[1,3,5,7,9,11,13,15,-1,17,-1,19,-1,21,23,-1,-1,25,27,-1,-1,-1,-1,-1,29,-1,-1,-1,-1,-1,-1],"loss_changes":[7.912499E0,8.271322E-1,3.6385088E0,4.405785E0,9.963527E-1,9.6474004E-1,1.7653713E0,5.3688145E-1,0E0,5.194254E-1,0E0,1.5572859E0,0E0,3.5393158E-1,5.2756405E-1,0E0,0E0,5.8693886E-3,3.2371E-2,0E0,0E0,0E0,0E0,0E0,6.2443066E-1,0E0,0E0,0E0,0E0,0E0,0E0],"parents":[2147483647,0,0,1,1,2,2,3,3,4,4,5,5,6,6,7,7,9,9,11,11,13,13,14,14,17,17,18,18,24,24],"right_children":[2,4,6,8,10,12,14,16,-1,18,-1,20,-1,22,24,-1,-1,26,28,-1,-1,-1,-1,-1,30,-1,-1,-1,-1,-1,-1],"split_conditions":[1.2037444E-1,8.122647E-1,9.065E-1,-4.214772E-1,1.4651047E0,2.0347176E0,1.74423E3,4.8570096E-1,-2.5651306E-1,-3.239437E1,-4.3012598E-3,-3.5400057E-1,1.7304365E-1,1.4588108E0,1.595E0,2.4637572E-1,5.8487784E-3,2.7929811E0,2.740001E0,1.130192E-1,-2.2675823E-1,-6.925028E-2,1.0394137E-1,-2.8547442E-2,2.3588853E0,8.259596E-2,2.7981347E-1,8.021958E-2,6.9109984E-3,-3.151711E-1,-3.0918766E-2],"split_indices":[0,4,1,3,4,13,15,4,0,15,0,3,0,3,14,0,0,13,1,0,0,0,0,0,11,0,0,0,0,0,0],"split_type":[0,0,0,0,0,0,0,0,0,0,0,0,0,0,0,0,0,0,0,0,0,0,0,0,0,0,0,0,0,0,0],"sum_hessian":[3.5289906E1,1.7600016E1,1.768989E1,6.453444E0,1.1146572E1,5.4453335E0,1.2244555E1,4.531768E0,1.921676E0,9.206839E0,1.9397331E0,2.9795084E0,2.4658248E0,2.2903385E0,9.954217E0,3.442204E0,1.0895641E0,7.1525373E0,2.0543017E0,1.763711E0,1.2157973E0,1.2895571E0,1.0007814E0,1.0000887E0,8.954128E0,1.0802608E0,6.0722766E0,1.0339891E0,1.0203127E0,7.9483933E0,1.0057352E0],"tree_param":{"num_deleted":"0","num_feature":"32","num_nodes":"31","size_leaf_vector":"0"}},{"base_weights":[2.0800356E-2,4.1852418E-1,-3.8307586E-1,4.9768883E-1,-1.885048E-1,-5.6634444E-1,4.6601087E-1,6.2606066E-1,-2.2702353E-1,-9.099713E-1,1.5556612E-2,9.7667515E-2,5.776624E-1,7.098483E-1,-9.6498825E-2,-1.0195944E-1,-1.0011495E0,4.7022298E-1,-3.8889486E-1,8.833351E-1,4.067403E-1,-1.124651E0,-1.667881E-1,-7.2236687E-1,2.752826E-1,8.2656497E-1,-4.991248E-1],"categories":[],"categories_nodes":[],"categories_segments":[],"categories_sizes":[],"default_left":[true,true,true,true,false,true,true,true,false,false,false,false,false,true,false,false,true,false,true,false,false,false,false,false,false,false,false],"id":12,"left_children":[1,3,5,7,-1,9,11,13,-1,15,17,-1,-1,19,-1,-1,21,-1,23,-1,25,-1,-1,-1,-1,-1,-1],"loss_changes":[5.332546E0,8.9639354E-1,2.8312256E0,1.5421853E0,0E0,2.817707E0,8.659452E-2,8.5860395E-1,0E0,5.48604E-1,1.320925E0,0E0,0E0,2.6196432E-1,0E0,0E0,6.18546E-1,0E0,1.0454993E0,0E0,2.7529352E0,0E0,0E0,0E0,0E0,0E0,0E0],"parents":[2147483647,0,0,1,1,2,2,3,3,5,5,6,6,7,7,9,9,10,10,13,13,16,16,18,18,20,20],"right_children":[2,4,6,8,-1,10,12,14,-1,16,18,-1,-1,20,-1,-1,22,-1,24,-1,26,-1,-1,-1,-1,-1,-1],"split_conditions":[1.2037444E-1,1.75E-1,-1.795508E-2,-6.170635E-2,-5.655144E-2,1.095E0,2.000217E0,3.1222992E0,-6.810706E-2,1.505E0,-1.5649386E-1,2.9300256E-2,1.7329873E-1,4.8000002E-1,-2.8949648E-2,-3.0587832E-2,2.3588853E0,1.410669E-1,1.33933E0,2.6500055E-1,7.582485E2,-3.373953E-1,-5.0036434E-2,-2.1671008E-1,8.258478E-2,2.479695E-1,-1.4973745E-1],"split_indices":[0,9,25,0,0,12,13,13,0,14,3,0,0,12,0,0,11,0,3,0,15,0,0,0,0,0,0],"split_type":[0,0,0,0,0,0,0,0,0,0,0,0,0,0,0,0,0,0,0,0,0,0,0,0,0,0,0],"sum_hessian":[3.119935E1,1.5701132E1,1.5498218E1,1.4049069E1,1.6520624E0,1.3020782E1,2.4774358E0,1.20506115E1,1.9984577E0,7.832002E0,5.18878E0,1.0123619E0,1.4650738E0,1.0814195E1,1.2364173E0,1.0089585E0,6.823044E0,2.3661923E0,2.8225875E0,5.660241E0,5.153953E0,5.640259E0,1.1827849E0,1.8207893E0,1.001798E0,3.5815969E0,1.5723562E0],"tree_param":{"num_deleted":"0","num_feature":"32","num_nodes":"27","size_leaf_vector":"0"}},{"base_weights":[1.8319445E-2,2.7705306E-1,-4.563971E-1,1.1404869E-1,7.659358E-1,1.7487764E-1,-6.978617E-1,7.1548814E-1,-5.7276495E-2,-1.6790618E-1,4.1009876E-1,-8.647632E-1,2.1177231E-1,6.1095667E-1,-2.2463647E-1,-5.995317E-1,1.2003335E-1,-1.0706105E0,1.7310955E-1,4.446812E-1,-3.4714374E-1],"categories":[],"categories_nodes":[],"categories_segments":[],"categories_sizes":[],"default_left":[true,true,false,false,false,true,true,false,true,false,false,false,false,false,false,true,false,false,false,false,false],"id":13,"left_children":[1,3,5,7,-1,9,11,-1,13,-1,-1,-1,-1,-1,15,17,19,-1,-1,-1,-1],"loss_changes":[3.6422405E0,1.4386337E0,1.7188029E0,1.641814E0,0E0,3.6701834E-1,1.3639021E0,0E0,1.5930405E0,0E0,0E0,0E0,0E0,0E0,1.5115819E0,2.1884494E0,1.1611116E0,0E0,0E0,0E0,0E0],"parents":[2147483647,0,0,1,1,2,2,3,3,5,5,6,6,8,8,14,14,15,15,16,16],"right_children":[2,4,6,8,-1,10,12,-1,14,-1,-1,-1,-1,-1,16,18,20,-1,-1,-1,-1],"split_conditions":[5.2631956E-1,-1.8225813E-1,-1.0506375E0,1.69E0,2.2978075E-1,-8.617987E0,2.8615308E0,2.1464644E-1,-9.923909E-1,-5.0371855E-2,1.23029634E-1,-2.5942898E-1,6.35317E-2,1.8328701E-1,8.122647E-1,1.0699999E0,1.2793199E0,-3.2118317E-1,5.1932868E-2,1.3340436E-1,-1.0414313E-1],"split_indices":[0,25,5,14,0,20,13,0,3,0,0,0,0,0,4,12,4,0,0,0,0],"split_type":[0,0,0,0,0,0,0,0,0,0,0,0,0,0,0,0,0,0,0,0,0],"sum_hessian":[2.7624392E1,1.8149044E1,9.4753475E0,1.4535777E1,3.6132667E0,2.6978824E0,6.7774653E0,2.5184662E0,1.2017311E1,1.2143735E0,1.4835088E0,5.768397E0,1.0090687E0,1.8760567E0,1.0141254E1,4.503446E0,5.6378083E0,2.5581148E0,1.9453311E0,3.3547196E0,2.2830884E0],"tree_param":{"num_deleted":"0","num_feature":"32","num_nodes":"21","size_leaf_vector":"0"}},{"base_weights":[2.696622E-2,3.223151E-1,-2.9247677E-1,6.858457E-1,1.4068599E-1,-5.9806573E-1,7.7903025E-2,-4.231368E-1,3.925715E-1,-8.529001E-1,1.8873818E-1,4.295495E-1,-1.8347606E-1,-1.1887037E0,3.7553355E-1,5.680456E-1,-2.3348092E-1,-1.6313101E-1,-9.6768206E-1,3.1427184E-1,-5.0180703E-1,7.461473E-1,-4.6407074E-2,-1.0782416E0,-2.8438568E-1,-1.2937413E-1,-6.1393595E-1],"categories":[],"categories_nodes":[],"categories_segments":[],"categories_sizes":[],"default_left":[true,false,true,false,false,true,false,true,true,false,false,false,false,false,false,true,false,false,false,false,false,false,false,false,false,false,false],"id":14,"left_children":[1,3,5,-1,7,9,11,13,15,17,-1,-1,19,-1,-1,21,-1,-1,23,-1,25,-1,-1,-1,-1,-1,-1],"loss_changes":[2.533534E0,8.219191E-1,1.5117258E0,0E0,1.6620425E0,1.6062078E0,6.9800663E-1,2.7294312E0,9.894434E-1,2.8754902E-1,0E0,0E0,8.81032E-1,0E0,0E0,7.331772E-1,0E0,0E0,4.2410374E-2,0E0,5.2930474E-2,0E0,0E0,0E0,0E0,0E0,0E0],"parents":[2147483647,0,0,1,1,2,2,4,4,5,5,6,6,7,7,8,8,9,9,12,12,15,15,18,18,20,20],"right_children":[2,4,6,-1,8,10,12,14,16,18,-1,-1,20,-1,-1,22,-1,-1,24,-1,26,-1,-1,-1,-1,-1,-1],"split_conditions":[1.2037444E-1,4.333501E-1,9.35E-1,2.0575371E-1,8.122647E-1,2.3588853E0,-5.514615E-1,6.029913E-1,1.46052E0,1.705E0,5.662146E-2,1.2886485E-1,1.75473E3,-3.566111E-1,1.1266007E-1,-3.239437E1,-7.004428E-2,-4.8939306E-2,8.919091E-1,9.4281554E-2,4.065771E-1,2.2384419E-1,-1.3922122E-2,-3.234725E-1,-8.5315704E-2,-3.8812242E-2,-1.841808E-1],"split_indices":[0,8,12,0,4,11,5,8,4,14,0,0,15,0,0,15,0,0,7,0,8,0,0,0,0,0,0],"split_type":[0,0,0,0,0,0,0,0,0,0,0,0,0,0,0,0,0,0,0,0,0,0,0,0,0,0,0],"sum_hessian":[2.4854145E1,1.2909427E1,1.1944719E1,3.3760953E0,9.533331E0,6.2079744E0,5.7367444E0,2.7338898E0,6.7994413E0,4.625754E0,1.5822206E0,2.171679E0,3.5650656E0,1.1465291E0,1.5873607E0,5.3832445E0,1.4161966E0,1.0053633E0,3.6203904E0,1.3956126E0,2.169453E0,4.0073647E0,1.3758798E0,2.61868E0,1.0017104E0,1.0004119E0,1.169041E0],"tree_param":{"num_deleted":"0","num_feature":"32","num_nodes":"27","size_leaf_vector":"0"}},{"base_weights":[1.2049248E-2,-1.3072811E-1,6.170083E-1,2.1155335E-2,-6.9965607E-1,7.385755E-1,1.1465092E-1,1.3518687E-1,-6.647682E-1,-8.8846487E-1,-4.3530975E-2,-2.2906938E-1,3.825763E-1,1.5398458E-1,-8.8458246E-1,5.437791E-1,-1.4322051E-1,4.7951767E-1,-1.2917642E-1,6.482324E-1,-5.431253E-3],"categories":[],"categories_nodes":[],"categories_segments":[],"categories_sizes":[],"default_left":[true,true,true,true,true,false,false,false,false,false,false,true,true,false,false,true,false,false,false,false,false],"id":15,"left_children":[1,3,5,7,9,-1,-1,11,-1,-1,-1,13,15,17,-1,19,-1,-1,-1,-1,-1],"loss_changes":[2.1316757E0,1.7461839E0,2.0289898E-1,1.402766E0,4.879856E-1,0E0,0E0,1.4594871E0,0E0,0E0,0E0,1.8393826E0,8.7807524E-1,5.350856E-1,0E0,4.2998314E-1,0E0,0E0,0E0,0E0,0E0],"parents":[2147483647,0,0,1,1,2,2,3,3,4,4,7,7,11,11,12,12,13,13,15,15],"right_children":[2,4,6,8,10,-1,-1,12,-1,-1,-1,14,16,18,-1,20,-1,-1,-1,-1,-1],"split_conditions":[-1.795508E-2,-1.2640056E-1,3.942256E-1,1.5532076E0,1.525E0,2.2157267E-1,3.4395278E-2,1.295E0,-1.9943048E-1,-2.6653948E-1,-1.3059293E-2,-1.057744E-1,1.9300001E0,2.631948E0,-2.6537475E-1,1.515E0,-4.2966157E-2,1.438553E-1,-3.875293E-2,1.9446974E-1,-1.629376E-3],"split_indices":[25,2,0,0,21,0,0,12,0,0,0,0,10,13,0,14,0,0,0,0,0],"split_type":[0,0,0,0,0,0,0,0,0,0,0,0,0,0,0,0,0,0,0,0,0],"sum_hessian":[2.274562E1,1.9036655E1,3.7089658E0,1.5785347E1,3.2513087E0,2.6077003E0,1.1012655E0,1.4223646E1,1.5617009E0,2.2497919E0,1.0015168E0,5.7829227E0,8.440723E0,4.1329155E0,1.650007E0,6.4339533E0,2.0067704E0,1.6000217E0,2.532894E0,5.2543406E0,1.1796125E0],"tree_param":{"num_deleted":"0","num_feature":"32","num_nodes":"21","size_leaf_vector":"0"}},{"base_weights":[1.4081101E-3,2.5036868E-1,-2.7845922E-1,6.0178274E-1,9.485045E-2,3.929225E-1,-4.0409008E-1,-3.5830784E-1,4.2107546E-1,3.232203E-1,-5.6406623E-1,-9.6204084E-1,4.1249037E-1,-6.05876E-2,5.484008E-1,8.194926E-2,-9.030788E-1,7.252064E-1,1.1724315E-1,-4.310679E-1,4.260314E-1],"categories":[],"categories_nodes":[],"categories_segments":[],"categories_sizes":[],"default_left":[true,false,false,false,false,false,false,true,false,false,false,false,false,false,true,true,false,false,false,false,false],"id":16,"left_children":[1,3,5,-1,7,-1,9,11,13,-1,15,-1,-1,-1,17,19,-1,-1,-1,-1,-1],"loss_changes":[1.599811E0,6.0684365E-1,1.0707105E0,0E0,1.5713212E0,0E0,1.2993649E0,2.519834E0,4.0404236E-1,0E0,1.877285E0,0E0,0E0,0E0,2.8711677E-1,8.457079E-1,0E0,0E0,0E0,0E0,0E0],"parents":[2147483647,0,0,1,1,2,2,4,4,6,6,7,7,8,8,10,10,14,14,15,15],"right_children":[2,4,6,-1,8,-1,10,12,14,-1,16,-1,-1,-1,18,20,-1,-1,-1,-1,-1],"split_conditions":[1.2037444E-1,4.333501E-1,-5.6517344E0,1.8053482E-1,4.1676542E-1,1.1787675E-1,6.3685E2,5.9411323E-1,8.450706E0,9.6966095E-2,-3.5400057E-1,-2.8861228E-1,1.2374712E-1,-1.817628E-2,7.896707E-1,1.0658708E-1,-2.7092364E-1,2.1756192E-1,3.5172947E-2,-1.2932038E-1,1.2780944E-1],"split_indices":[0,8,22,0,3,0,15,8,15,0,3,0,0,0,3,8,0,0,0,0,0],"split_type":[0,0,0,0,0,0,0,0,0,0,0,0,0,0,0,0,0,0,0,0,0],"sum_hessian":[2.0960142E1,1.1148348E1,9.811794E0,2.539801E0,8.608547E0,1.2112389E0,8.600555E0,3.562099E0,5.046448E0,1.3666836E0,7.233872E0,1.8583914E0,1.7037077E0,1.1646831E0,3.881765E0,2.7506187E0,4.4832535E0,2.269223E0,1.6125422E0,1.0027461E0,1.7478725E0],"tree_param":{"num_deleted":"0","num_feature":"32","num_nodes":"21","size_leaf_vector":"0"}},{"base_weights":[1.2540804E-2,-1.1000133E-1,5.5074364E-1,1.9238226E-2,-6.1837757E-1,6.547776E-1,1.5052925E-1,2.2115278E-1,-2.8525448E-1,-1.0746674E-1,-8.2045054E-1,4.669091E-1,-1.2990078E-1,-5.948321E-1,2.5331575E-1,6.4955306E-1,-1.9636762E-1,2.6764026E-1,-4.1682386E-1,2.889429E-2,-8.3068216E-1,4.344243E-1,-5.3590763E-2,1.3086663E-1,7.630029E-1],"categories":[],"categories_nodes":[],"categories_segments":[],"categories_sizes":[],"default_left":[true,true,true,true,true,false,false,true,true,false,false,true,false,false,false,false,false,false,false,false,false,false,false,false,false],"id":17,"left_children":[1,3,5,7,9,-1,-1,11,13,-1,-1,15,17,19,21,23,-1,-1,-1,-1,-1,-1,-1,-1,-1],"loss_changes":[1.3939112E0,1.1485891E0,6.447637E-2,9.7078395E-1,2.7698028E-1,0E0,0E0,8.751144E-1,1.2049627E0,0E0,0E0,8.2663333E-1,6.442094E-1,6.5860915E-1,1.9055206E-1,1.8006563E-1,0E0,0E0,0E0,0E0,0E0,0E0,0E0,0E0,0E0],"parents":[2147483647,0,0,1,1,2,2,3,3,4,4,7,7,8,8,11,11,12,12,13,13,14,14,15,15],"right_children":[2,4,6,8,10,-1,-1,12,14,-1,-1,16,18,20,22,24,-1,-1,-1,-1,-1,-1,-1,-1,-1],"split_conditions":[-1.795508E-2,-1.2640056E-1,3.1005388E-1,1.2037444E-1,1.5736565E-1,1.9643329E-1,4.5158777E-2,4.8000002E-1,1.295E0,-3.2240026E-2,-2.4613518E-1,1.6188395E0,2.631948E0,-5.9515446E-1,-2.9396257E-1,7.1578205E-1,-5.8910288E-2,8.029208E-2,-1.2504716E-1,8.668288E-3,-2.4920465E-1,1.303273E-1,-1.607723E-2,3.9259993E-2,2.2890086E-1],"split_indices":[25,2,0,0,8,0,0,12,12,0,0,4,13,3,3,4,0,0,0,0,0,0,0,0,0],"split_type":[0,0,0,0,0,0,0,0,0,0,0,0,0,0,0,0,0,0,0,0,0,0,0,0,0],"sum_hessian":[1.921649E1,1.6300648E1,2.9158425E0,1.3763775E1,2.5368736E0,1.8094239E0,1.1064187E0,8.440457E0,5.3233175E0,1.1531444E0,1.3837291E0,4.7706933E0,3.6697636E0,3.3139484E0,2.0093691E0,3.7568696E0,1.0138239E0,1.5665141E0,2.1032495E0,1.1500437E0,2.1639047E0,1.002368E0,1.007001E0,1.0607408E0,2.6961288E0],"tree_param":{"num_deleted":"0","num_feature":"32","num_nodes":"25","size_leaf_vector":"0"}},{"base_weights":[1.208406E-2,-9.557753E-2,4.9775606E-1,1.5714037E-1,-3.030048E-1,1.04485966E-1,6.099127E-1,-3.9061984E-1,2.981923E-1,-9.108699E-1,-5.7037327E-2,7.078592E-1,-5.043337E-2,-4.84057E-1,3.731582E-1,-3.504459E-1,3.0545017E-1,2.0889226E-2,-6.6107845E-1,6.6144896E-1,-4.7528286E-2],"categories":[],"categories_nodes":[],"categories_segments":[],"categories_sizes":[],"default_left":[true,true,true,false,false,false,false,false,true,false,true,false,false,false,true,false,false,false,false,false,false],"id":18,"left_children":[1,3,5,7,9,-1,-1,-1,11,-1,13,-1,15,17,19,-1,-1,-1,-1,-1,-1],"loss_changes":[1.0336484E0,9.007828E-1,9.431058E-2,7.3421395E-1,1.3355756E0,0E0,0E0,0E0,1.0247469E0,0E0,1.5902869E0,0E0,6.061674E-1,3.9694905E-1,5.6352645E-1,0E0,0E0,0E0,0E0,0E0,0E0],"parents":[2147483647,0,0,1,1,2,2,3,3,4,4,8,8,10,10,12,12,13,13,14,14],"right_children":[2,4,6,8,10,-1,-1,-1,12,-1,14,-1,16,18,20,-1,-1,-1,-1,-1,-1],"split_conditions":[-1.795508E-2,-6.170635E-2,1.2781513E0,2.8600008E0,1.095E0,3.1345792E-2,1.8297382E-1,-1.1718596E-1,4.8000002E-1,-2.7326098E-1,5.4013073E-1,2.1235777E-1,4.3706638E-1,1.0305388E-1,3.8021123E-1,-1.0513377E-1,9.1635056E-2,6.266768E-3,-1.9832355E-1,1.984347E-1,-1.4258486E-2],"split_indices":[25,0,30,9,12,0,0,0,12,0,4,0,3,2,0,0,0,0,0,0,0],"split_type":[0,0,0,0,0,0,0,0,0,0,0,0,0,0,0,0,0,0,0,0,0],"sum_hessian":[1.7858435E1,1.5275448E1,2.5829873E0,6.9952517E0,8.280196E0,1.0018106E0,1.5811768E0,1.0701404E0,5.9251113E0,1.606587E0,6.6736093E0,2.2503347E0,3.6747763E0,3.2863338E0,3.3872755E0,2.0021923E0,1.672584E0,1.0819924E0,2.2043414E0,1.6703197E0,1.7169558E0],"tree_param":{"num_deleted":"0","num_feature":"32","num_nodes":"21","size_leaf_vector":"0"}},{"base_weights":[1.4046011E-2,5.121387E-1,-7.01798E-2,4.009756E-2,-5.762322E-1,-1.9326459E-1,2.1739095E-1,-3.837311E-1,2.9547665E-1,3.8517097E-1,-9.14118E-2,-7.565678E-1,6.655384E-2,-1.690602E-2,5.571754E-1,-5.5173624E-1,2.9937917E-1,-2.1407986E-1,3.1006056E-1,6.8588984E-1,9.926443E-2],"categories":[],"categories_nodes":[],"categories_segments":[],"categories_sizes":[],"default_left":[false,false,true,false,false,true,true,true,false,false,true,false,false,false,true,false,false,false,false,false,false],"id":19,"left_children":[1,-1,3,5,-1,7,9,11,-1,13,15,-1,17,-1,19,-1,-1,-1,-1,-1,-1],"loss_changes":[7.772977E-1,0E0,9.157204E-1,6.2405574E-1,0E0,7.2804666E-1,4.737881E-1,9.210544E-1,0E0,4.0201563E-1,8.4665364E-1,0E0,2.8972325E-1,0E0,1.679883E-1,0E0,0E0,0E0,0E0,0E0,0E0],"parents":[2147483647,0,0,2,2,3,3,5,5,6,6,7,7,9,9,10,10,12,12,14,14],"right_children":[2,-1,4,6,-1,8,10,12,-1,14,16,-1,18,-1,20,-1,-1,-1,-1,-1,-1],"split_conditions":[-5.53024E0,1.5364163E-1,1.7317741E-3,1.295E0,-1.7286967E-1,6.8752325E-1,3.7404436E-1,4.7040373E-1,8.8643E-2,6.393569E-1,1.395E0,-2.2697034E-1,1.3062825E0,-5.071806E-3,1.502276E0,-1.6552088E-1,8.9813754E-2,-6.422396E-2,9.3018174E-2,2.0576696E-1,2.977933E-2],"split_indices":[22,0,2,12,0,8,0,3,0,4,12,0,4,0,4,0,0,0,0,0,0],"split_type":[0,0,0,0,0,0,0,0,0,0,0,0,0,0,0,0,0,0,0,0,0],"sum_hessian":[1.6671417E1,1.6764889E0,1.4994927E1,1.3067963E1,1.9269654E0,5.6029735E0,7.4649887E0,4.1863694E0,1.4166043E0,4.676713E0,2.7882755E0,1.9180349E0,2.2683344E0,1.6713898E0,3.0053232E0,1.0911419E0,1.6971337E0,1.1099726E0,1.1583617E0,1.9572824E0,1.0480409E0],"tree_param":{"num_deleted":"0","num_feature":"32","num_nodes":"21","size_leaf_vector":"0"}},{"base_weights":[1.5455272E-2,2.2683527E-1,-1.759024E-1,3.6240155E-1,-3.842032E-1,-2.917421E-1,3.1476027E-1,6.8860626E-1,1.066777E-1,3.4414697E-1,-4.441901E-1,3.1318456E-1,-3.2153806E-1,-1.2780237E-1,-7.572661E-1,6.465337E-1,-1.7052378E-1,-3.962762E-1,2.6915872E-1,-6.9254285E-1,6.943441E-2],"categories":[],"categories_nodes":[],"categories_segments":[],"categories_sizes":[],"default_left":[true,true,true,true,false,false,false,false,false,false,true,false,false,true,false,false,false,false,false,false,false],"id":20,"left_children":[1,3,5,7,-1,9,-1,-1,11,-1,13,15,-1,17,-1,-1,-1,19,-1,-1,-1],"loss_changes":[7.231962E-1,8.402946E-1,6.2778413E-1,5.472628E-1,0E0,9.426824E-1,0E0,0E0,5.7419384E-1,0E0,5.974319E-1,7.7440846E-1,0E0,6.0636693E-1,0E0,0E0,0E0,4.8982245E-1,0E0,0E0,0E0],"parents":[2147483647,0,0,1,1,2,2,3,3,5,5,8,8,10,10,11,11,13,13,17,17],"right_children":[2,4,6,8,-1,10,-1,-1,12,-1,14,16,-1,18,-1,-1,-1,20,-1,-1,-1],"split_conditions":[-6.170635E-2,2.01E0,2.3588853E0,4.8000002E-1,-1.15260966E-1,6.3685E2,9.4428085E-2,2.0658189E-1,1.051515E0,1.03244096E-1,-3.9138976E-2,7.582485E2,-9.646142E-2,1.09E0,-2.2717984E-1,1.9396013E-1,-5.1157136E-2,7.484083E-1,8.074762E-2,-2.0776287E-1,2.0830324E-2],"split_indices":[0,10,11,12,0,15,0,0,4,0,3,15,0,12,0,0,0,4,0,0,0],"split_type":[0,0,0,0,0,0,0,0,0,0,0,0,0,0,0,0,0,0,0,0,0],"sum_hessian":[1.5892684E1,7.463194E0,8.42949E0,6.441073E0,1.0221212E0,7.1474686E0,1.2820213E0,2.0866022E0,4.3544707E0,1.1390032E0,6.0084653E0,3.1189752E0,1.2354953E0,3.68883E0,2.3196356E0,1.6471901E0,1.4717852E0,2.201578E0,1.487252E0,1.0478868E0,1.1536909E0],"tree_param":{"num_deleted":"0","num_feature":"32","num_nodes":"21","size_leaf_vector":"0"}},{"base_weights":[1.4482633E-2,4.173295E-1,-8.2543634E-2,5.8062917E-1,2.8081352E-2,-1.8363972E-1,3.8327217E-1,-3.2555678E-1,1.4807525E-1,-7.997319E-1,2.0499827E-2,4.1922086E-1,-2.8568828E-1,-2.0471959E-1,-9.46367E-1,2.6243332E-1,-3.751175E-1,4.5833224E-1,-1.4205776E-1],"categories":[],"categories_nodes":[],"categories_segments":[],"categories_sizes":[],"default_left":[true,true,true,false,false,true,false,true,false,false,false,false,false,false,false,true,false,false,false],"id":21,"left_children":[1,3,5,-1,-1,7,-1,9,11,13,15,-1,-1,-1,-1,17,-1,-1,-1],"loss_changes":[6.573081E-1,1.9080013E-1,7.144696E-1,0E0,0E0,6.0907954E-1,0E0,1.4369195E0,6.2047815E-1,1.271081E-1,6.7076534E-1,0E0,0E0,0E0,0E0,4.057477E-1,0E0,0E0,0E0],"parents":[2147483647,0,0,1,1,2,2,5,5,7,7,8,8,9,9,10,10,15,15],"right_children":[2,4,6,-1,-1,8,-1,10,12,14,16,-1,-1,-1,-1,18,-1,-1,-1],"split_conditions":[-7.645009E-1,2.2819185E0,-1.795508E-2,1.7418876E-1,8.424406E-3,1.095E0,1.1498166E-1,7.3367107E-1,-6.03587E-2,2.335E0,1.2793199E0,1.2576626E-1,-8.570649E-2,-6.1415877E-2,-2.8391013E-1,1.5566498E-1,-1.1253526E-1,1.3749968E-1,-4.261733E-2],"split_indices":[0,13,25,0,0,12,0,4,3,14,4,0,0,0,0,0,0,0,0],"split_type":[0,0,0,0,0,0,0,0,0,0,0,0,0,0,0,0,0,0,0],"sum_hessian":[1.4935338E1,2.2582066E0,1.2677132E1,1.2444565E0,1.0137501E0,1.091419E1,1.7629412E0,7.6569114E0,3.257279E0,2.6773527E0,4.979559E0,2.0249865E0,1.2322924E0,1.0031029E0,1.6742496E0,3.2988489E0,1.68071E0,2.1328032E0,1.1660457E0],"tree_param":{"num_deleted":"0","num_feature":"32","num_nodes":"19","size_leaf_vector":"0"}},{"base_weights":[1.0476806E-2,3.7520558E-1,-7.598736E-2,5.3523666E-1,2.3936491E-2,-1.6250014E-1,3.2726467E-1,3.1056938E-1,-2.4138099E-1,-4.1191152E-1,1.19575955E-1,-7.710785E-1,-8.8895224E-2,3.5495886E-1,-2.4056901E-1,2.0631257E-1,-4.8879096E-1],"categories":[],"categories_nodes":[],"categories_segments":[],"categories_sizes":[],"default_left":[true,true,true,false,false,false,false,false,true,true,false,false,false,false,false,false,false],"id":22,"left_children":[1,3,5,-1,-1,7,-1,-1,9,11,13,-1,15,-1,-1,-1,-1],"loss_changes":[5.055647E-1,1.5961489E-1,5.087964E-1,0E0,0E0,5.0116193E-1,0E0,0E0,6.864435E-1,7.731879E-1,4.326524E-1,0E0,6.8522435E-1,0E0,0E0,0E0,0E0],"parents":[2147483647,0,0,1,1,2,2,5,5,8,8,9,9,10,10,12,12],"right_children":[2,4,6,-1,-1,8,-1,-1,10,12,14,-1,16,-1,-1,-1,-1],"split_conditions":[-7.645009E-1,2.2819185E0,-1.795508E-2,1.6057101E-1,7.180948E-3,1.645E0,9.817941E-2,9.3170814E-2,1.095E0,7.3235905E-1,-6.03587E-2,-2.3132357E-1,1.2793199E0,1.0648766E-1,-7.2170705E-2,6.1893772E-2,-1.4663729E-1],"split_indices":[0,13,25,0,0,14,0,0,12,4,3,0,4,0,0,0,0],"split_type":[0,0,0,0,0,0,0,0,0,0,0,0,0,0,0,0,0],"sum_hessian":[1.4127291E1,2.0673263E0,1.2059964E1,1.0604733E0,1.0068529E0,1.0421241E1,1.6387237E0,1.0695666E0,9.351674E0,6.2552686E0,3.096405E0,2.3050864E0,3.9501822E0,1.8812567E0,1.2151483E0,2.5510507E0,1.3991318E0],"tree_param":{"num_deleted":"0","num_feature":"32","num_nodes":"17","size_leaf_vector":"0"}},{"base_weights":[1.4147755E-2,3.3548722E-1,-7.986093E-2,5.3547484E-1,2.04997E-2,-2.572992E-1,1.2186314E-1,-7.085029E-1,3.7677925E-2,5.091452E-1,-9.015533E-2,4.4833037E-1,-4.229991E-1,-3.9615083E-1,2.1301857E-1,3.98E-1,-6.352487E-2],"categories":[],"categories_nodes":[],"categories_segments":[],"categories_sizes":[],"default_left":[true,true,false,false,false,true,false,false,false,false,false,false,false,false,true,false,false],"id":23,"left_children":[1,3,5,-1,-1,7,9,-1,11,-1,13,-1,-1,-1,15,-1,-1],"loss_changes":[4.676983E-1,2.0923215E-1,4.644429E-1,0E0,0E0,9.2624164E-1,5.6655943E-1,0E0,1.1424164E0,0E0,5.433387E-1,0E0,0E0,0E0,1.856741E-1,0E0,0E0],"parents":[2147483647,0,0,1,1,2,2,5,5,6,6,8,8,10,10,14,14],"right_children":[2,4,6,-1,-1,8,10,-1,12,-1,14,-1,-1,-1,16,-1,-1],"split_conditions":[-6.634579E-1,-1.5225917E-1,4.0831137E-1,1.6064246E-1,6.1499104E-3,6.5700635E-2,6.066034E-1,-2.1255088E-1,4.5551372E-1,1.5274356E-1,9.4204444E-1,1.3449912E-1,-1.2689973E-1,-1.18845254E-1,3.1555945E-1,1.194E-1,-1.9057462E-2],"split_indices":[3,0,3,0,0,8,3,0,8,0,3,0,0,0,0,0,0],"split_type":[0,0,0,0,0,0,0,0,0,0,0,0,0,0,0,0,0],"sum_hessian":[1.3595331E1,2.4957395E0,1.1099592E1,1.0983819E0,1.3973576E0,5.758693E0,5.3408985E0,1.7223133E0,4.0363803E0,1.3936954E0,3.9472032E0,2.1482277E0,1.8881522E0,1.8118311E0,2.135372E0,1.0163407E0,1.1190312E0],"tree_param":{"num_deleted":"0","num_feature":"32","num_nodes":"17","size_leaf_vector":"0"}},{"base_weights":[2.027026E-2,1.9347024E-1,-1.4529346E-1,3.396545E-2,5.535116E-1,2.906928E-1,-2.5810313E-1,2.4133426E-1,-4.6985617E-1,-3.9270312E-1,2.5570077E-1,-1.9156244E-1,5.718908E-1,-1.3977969E-1,-6.195047E-1,-3.8299608E-1,1.3855344E-1],"categories":[],"categories_nodes":[],"categories_segments":[],"categories_sizes":[],"default_left":[true,true,false,true,false,false,true,true,false,true,false,false,false,false,false,false,false],"id":24,"left_children":[1,3,5,7,-1,-1,9,11,-1,13,-1,-1,-1,15,-1,-1,-1],"loss_changes":[4.3295452E-1,4.0208074E-1,4.581316E-1,7.5531715E-1,0E0,0E0,5.6500447E-1,8.269433E-1,0E0,2.4138898E-1,0E0,0E0,0E0,3.2347542E-1,0E0,0E0,0E0],"parents":[2147483647,0,0,1,1,2,2,3,3,6,6,7,7,9,9,13,13],"right_children":[2,4,6,8,-1,-1,10,12,-1,14,-1,-1,-1,16,-1,-1,-1],"split_conditions":[-6.170635E-2,5.9040797E-1,6.3685E2,-3.1581673E-1,1.6605349E-1,8.720785E-2,2.0655782E0,-5.1772875E-1,-1.4095686E-1,-3.9138976E-2,7.671023E-2,-5.7468735E-2,1.7156723E-1,2.4362923E-1,-1.8585141E-1,-1.1489883E-1,4.1566033E-2],"split_indices":[0,8,15,7,0,0,11,0,0,3,0,0,0,8,0,0,0],"split_type":[0,0,0,0,0,0,0,0,0,0,0,0,0,0,0,0,0],"sum_hessian":[1.3118068E1,6.3288054E0,6.7892623E0,5.1441793E0,1.1846263E0,1.071457E0,5.7178054E0,4.013322E0,1.1308575E0,4.717633E0,1.0001726E0,1.9197297E0,2.0935922E0,2.9945235E0,1.7231092E0,1.3973978E0,1.5971258E0],"tree_param":{"num_deleted":"0","num_feature":"32","num_nodes":"17","size_leaf_vector":"0"}},{"base_weights":[2.0610312E-2,3.9996618E-1,-4.213985E-2,-3.7990427E-1,4.301018E-2,1.4805636E-1,-3.5347152E-1,-9.143864E-2,4.1319412E-1,2.1528319E-1,-2.1369907E-1,6.299923E-1,8.874703E-2,-5.020711E-1,6.4397186E-2,-1.6692027E-1,3.0146128E-1],"categories":[],"categories_nodes":[],"categories_segments":[],"categories_sizes":[],"default_left":[false,false,false,false,true,false,false,false,true,false,true,false,true,false,false,false,false],"id":25,"left_children":[1,-1,3,-1,5,7,-1,9,11,-1,13,-1,15,-1,-1,-1,-1],"loss_changes":[3.3975366E-1,0E0,3.771119E-1,0E0,5.0699955E-1,6.305411E-1,0E0,2.6063427E-1,2.6845932E-1,0E0,4.0075618E-1,0E0,2.140768E-1,0E0,0E0,0E0,0E0],"parents":[2147483647,0,0,2,2,4,4,5,5,7,7,8,8,10,10,12,12],"right_children":[2,-1,4,-1,6,8,-1,10,12,-1,14,-1,16,-1,-1,-1,-1],"split_conditions":[2.9756541E0,1.1998986E-1,7.639147E-2,-1.13971286E-1,1.75E-1,1.295E0,-1.0604146E-1,5.811317E-1,6.107516E-2,6.4584956E-2,4.6900588E-1,1.889977E-1,2.082726E0,-1.5062132E-1,1.9319156E-2,-5.0076086E-2,9.043839E-2],"split_indices":[30,0,4,0,9,12,0,4,0,0,3,0,13,0,0,0,0],"split_type":[0,0,0,0,0,0,0,0,0,0,0,0,0,0,0,0,0],"sum_hessian":[1.2564545E1,1.020595E0,1.154395E1,1.6273112E0,9.916638E0,8.334912E0,1.581726E0,4.7234335E0,3.6114793E0,1.1293386E0,3.5940945E0,1.6003625E0,2.0111167E0,1.3690606E0,2.225034E0,1.011114E0,1.0000027E0],"tree_param":{"num_deleted":"0","num_feature":"32","num_nodes":"17","size_leaf_vector":"0"}},{"base_weights":[2.2580702E-2,2.9847398E-1,-5.7628497E-2,6.889896E-2,3.776859E-1,5.980077E-2,-3.905475E-1,3.7103742E-1,-7.7648304E-2,-5.124521E-1,-7.345248E-2,-4.5766836E-1,2.408728E-1,-7.7114045E-3,-7.0367223E-1,5.51447E-1,-2.4570817E-2,2.1699497E-1,-2.358781E-1],"categories":[],"categories_nodes":[],"categories_segments":[],"categories_sizes":[],"default_left":[false,false,true,false,false,false,true,false,false,false,false,false,true,false,false,false,true,false,false],"id":26,"left_children":[1,3,5,-1,-1,7,9,-1,11,-1,-1,13,15,-1,-1,-1,17,-1,-1],"loss_changes":[3.0787644E-1,3.072393E-2,4.539777E-1,0E0,0E0,4.1425005E-1,7.851672E-2,0E0,9.668507E-1,0E0,0E0,3.8993138E-1,3.849506E-1,0E0,0E0,0E0,2.2404107E-1,0E0,0E0],"parents":[2147483647,0,0,1,1,2,2,5,5,6,6,8,8,11,11,12,12,16,16],"right_children":[2,4,6,-1,-1,8,10,-1,12,-1,-1,14,16,-1,-1,-1,18,-1,-1],"split_conditions":[-1.0506375E0,-1.6267686E0,3.7404436E-1,2.066969E-2,1.1330578E-1,4.2313015E-1,9.848622E-1,1.11311235E-1,4.1676542E-1,-1.5373564E-1,-2.2035744E-2,2.631948E0,6.02888E-1,-2.3134213E-3,-2.1110168E-1,1.6543409E-1,2.7040284E0,6.5098494E-2,-7.076343E-2],"split_indices":[5,6,0,0,0,8,3,0,3,0,0,13,3,0,0,0,13,0,0],"split_type":[0,0,0,0,0,0,0,0,0,0,0,0,0,0,0,0,0,0,0],"sum_hessian":[1.213541E1,2.120476E0,1.0014935E1,1.0236115E0,1.0968643E0,8.009979E0,2.0049553E0,1.9331479E0,6.0768313E0,1.0031997E0,1.0017556E0,2.5717192E0,3.5051122E0,1.2735891E0,1.2981302E0,1.1187264E0,2.3863857E0,1.100911E0,1.2854747E0],"tree_param":{"num_deleted":"0","num_feature":"32","num_nodes":"19","size_leaf_vector":"0"}},{"base_weights":[1.96645E-2,9.2150465E-2,-2.6926503E-1,-2.1686083E-2,3.3554897E-1,-2.1747802E-1,2.2249997E-1,4.511109E-1,2.251716E-2,3.4088522E-1,-4.8789832E-1,3.805322E-1,-1.0374501E-1,-6.230587E-2,-6.6312414E-1],"categories":[],"categories_nodes":[],"categories_segments":[],"categories_sizes":[],"default_left":[true,true,false,false,false,false,true,false,false,false,false,false,false,false,false],"id":27,"left_children":[1,3,-1,5,7,9,11,-1,-1,-1,13,-1,-1,-1,-1],"loss_changes":[2.900163E-1,3.0841017E-1,0E0,4.4732517E-1,1.1732072E-1,9.419278E-1,2.5640655E-1,0E0,0E0,0E0,2.474373E-1,0E0,0E0,0E0,0E0],"parents":[2147483647,0,0,1,1,3,3,4,4,5,5,6,6,10,10],"right_children":[2,4,-1,6,8,10,12,-1,-1,-1,14,-1,-1,-1,-1],"split_conditions":[4.65E-1,3.837793E-3,-8.077951E-2,3.1527228E0,4.4099995E-1,-5.2083755E-1,1.75E-1,1.3533327E-1,6.755148E-3,1.02265574E-1,5.8500004E-1,1.14159666E-1,-3.1123506E-2,-1.8691761E-2,-1.9893725E-1],"split_indices":[1,7,0,13,7,7,9,0,0,0,12,0,0,0,0],"split_type":[0,0,0,0,0,0,0,0,0,0,0,0,0,0,0],"sum_hessian":[1.1662902E1,9.868243E0,1.794659E0,7.3442626E0,2.5239804E0,4.1367397E0,3.2075226E0,1.5212706E0,1.0027097E0,1.2647374E0,2.8720024E0,2.0487251E0,1.1587976E0,1.232953E0,1.6390494E0],"tree_param":{"num_deleted":"0","num_feature":"32","num_nodes":"15","size_leaf_vector":"0"}},{"base_weights":[1.8225385E-2,-5.386988E-2,3.3484787E-1,2.8288208E-2,-3.848774E-1,-1.1605764E-1,2.3901653E-1,-2.6618588E-1,1.4242175E-1,-7.711286E-2,4.0007648E-1,1.9141328E-1,-4.6472993E-1,-6.0349053E-1,-7.08531E-2],"categories":[],"categories_nodes":[],"categories_segments":[],"categories_sizes":[],"default_left":[true,true,false,true,false,true,false,false,false,false,false,false,false,false,false],"id":28,"left_children":[1,3,-1,5,-1,7,9,11,-1,-1,-1,-1,13,-1,-1],"loss_changes":[2.9984334E-1,3.0777502E-1,0E0,3.2211345E-1,0E0,2.8690848E-1,2.4780625E-1,4.8940402E-1,0E0,0E0,0E0,0E0,1.411882E-1,0E0,0E0],"parents":[2147483647,0,0,1,1,3,3,5,5,6,6,7,7,12,12],"right_children":[2,4,-1,6,-1,8,10,12,-1,-1,-1,-1,14,-1,-1],"split_conditions":[-1.795508E-2,-1.2640056E-1,1.0045437E-1,-2.9924387E-1,-1.1546323E-1,2.801057E0,1.095E0,-7.201394E-1,4.2726528E-2,-2.3133859E-2,1.20022945E-1,5.7423986E-2,8.9899766E-1,-1.8104717E-1,-2.125593E-2],"split_indices":[25,2,0,7,0,13,12,7,0,0,0,0,3,0,0],"split_type":[0,0,0,0,0,0,0,0,0,0,0,0,0,0,0],"sum_hessian":[1.13452635E1,9.917011E0,1.4282528E0,8.677693E0,1.2393174E0,5.416633E0,3.2610605E0,3.407625E0,2.0090082E0,1.2765862E0,1.9844743E0,1.0419897E0,2.3656352E0,1.3558102E0,1.0098251E0],"tree_param":{"num_deleted":"0","num_feature":"32","num_nodes":"15","size_leaf_vector":"0"}},{"base_weights":[1.2391228E-2,-5.621897E-2,3.291549E-1,-1.3879906E-1,2.3621118E-1,-3.2726463E-2,-4.3808958E-1,-1.6881453E-1,3.3894864E-1,2.7559226E-2,-5.2122754E-1,1.8116388E-1,-2.7265328E-1],"categories":[],"categories_nodes":[],"categories_segments":[],"categories_sizes":[],"default_left":[true,false,false,false,false,false,false,false,false,true,false,false,false],"id":29,"left_children":[1,3,-1,5,-1,7,-1,9,-1,11,-1,-1,-1],"loss_changes":[2.8008175E-1,2.923174E-1,0E0,2.7171212E-1,0E0,4.483772E-1,0E0,4.5230845E-1,0E0,2.8059098E-1,0E0,0E0,0E0],"parents":[2147483647,0,0,1,1,3,3,5,5,7,7,9,9],"right_children":[2,4,-1,6,-1,8,-1,10,-1,12,-1,-1,-1],"split_conditions":[1.52E0,1.0844171E0,9.874648E-2,6.5342546E-1,7.086336E-2,4.6724582E-1,-1.3142689E-1,-3.7616707E-2,1.0168459E-1,4.1819167E-1,-1.5636827E-1,5.4349165E-2,-8.179599E-2],"split_indices":[21,3,0,3,0,3,0,3,0,8,0,0,0],"split_type":[0,0,0,0,0,0,0,0,0,0,0,0,0],"sum_hessian":[1.1035815E1,9.747132E0,1.2886832E0,8.010412E0,1.7367202E0,6.733364E0,1.2770479E0,5.328241E0,1.4051235E0,4.013572E0,1.3146687E0,2.9174154E0,1.0961567E0],"tree_param":{"num_deleted":"0","num_feature":"32","num_nodes":"13","size_leaf_vector":"0"}},{"base_weights":[6.176591E-3,1.380938E-1,-1.7956442E-1,2.511659E-2,4.1250673E-1,-3.7541783E-1,1.3655975E-1,2.2739741E-1,-1.6796595E-1,-5.7831157E-2,-5.6803215E-1,-9.6682996E-2,4.077122E-1,-3.5178068E-1,1.1250179E-1],"categories":[],"categories_nodes":[],"categories_segments":[],"categories_sizes":[],"default_left":[true,true,true,true,false,true,false,false,false,false,false,false,false,false,false],"id":30,"left_children":[1,3,5,7,-1,9,-1,11,13,-1,-1,-1,-1,-1,-1],"loss_changes":[3.1389415E-1,2.2104803E-1,3.8154727E-1,2.862928E-1,0E0,1.8495542E-1,0E0,2.4552745E-1,2.3677874E-1,0E0,0E0,0E0,0E0,0E0,0E0],"parents":[2147483647,0,0,1,1,2,2,3,3,5,5,7,7,8,8],"right_children":[2,4,6,8,-1,10,-1,12,14,-1,-1,-1,-1,-1,-1],"split_conditions":[1.2037444E-1,5.9411323E-1,2.0401058E0,4.8000002E-1,1.2375202E-1,-3.5400057E-1,4.0967926E-2,2.8600008E0,4.3706638E-1,-1.7349347E-2,-1.7040965E-1,-2.90049E-2,1.2231366E-1,-1.0553421E-1,3.3750538E-2],"split_indices":[0,8,13,12,0,3,0,9,3,0,0,0,0,0,0],"split_type":[0,0,0,0,0,0,0,0,0,0,0,0,0,0,0],"sum_hessian":[1.0798722E1,6.4642205E0,4.3345017E0,5.352215E0,1.1120057E0,2.5605555E0,1.773946E0,2.5270534E0,2.8251612E0,1.4575534E0,1.1030022E0,1.0691952E0,1.4578582E0,1.5530494E0,1.2721119E0],"tree_param":{"num_deleted":"0","num_feature":"32","num_nodes":"15","size_leaf_vector":"0"}},{"base_weights":[4.8640314E-3,1.5511654E-1,-1.3907152E-1,3.1767765E-1,-9.489994E-2,-2.9222184E-1,7.317638E-2,5.316867E-1,4.8256807E-2,-1.8158169E-1,3.55969E-2,1.0111638E-1,-4.9489728E-1,3.588173E-1,-2.4173427E-1],"categories":[],"categories_nodes":[],"categories_segments":[],"categories_sizes":[],"default_left":[true,false,true,false,false,false,false,false,false,false,false,false,false,false,false],"id":31,"left_children":[1,3,5,7,9,11,13,-1,-1,-1,-1,-1,-1,-1,-1],"loss_changes":[2.6880568E-1,2.7668482E-1,2.283139E-1,1.9955018E-1,4.220916E-2,3.6079326E-1,3.9868152E-1,0E0,0E0,0E0,0E0,0E0,0E0,0E0,0E0],"parents":[2147483647,0,0,1,1,2,2,3,3,4,4,5,5,6,6],"right_children":[2,4,6,8,10,12,14,-1,-1,-1,-1,-1,-1,-1,-1],"split_conditions":[-6.170635E-2,3.1222992E0,-3.327373E-1,7.582485E2,1.3199463E0,8.035E-1,8.122598E-1,1.5950602E-1,1.44770425E-2,-5.447451E-2,1.067907E-2,3.0334916E-2,-1.484692E-1,1.076452E-1,-7.2520286E-2],"split_indices":[0,13,7,15,4,1,8,0,0,0,0,0,0,0,0],"split_type":[0,0,0,0,0,0,0,0,0,0,0,0,0,0,0],"sum_hessian":[1.0431869E1,5.065929E0,5.3659396E0,2.9058888E0,2.16004E0,2.8980315E0,2.4679081E0,1.0769733E0,1.8289154E0,1.06269E0,1.09735E0,1.1558776E0,1.7421539E0,1.2209841E0,1.2469242E0],"tree_param":{"num_deleted":"0","num_feature":"32","num_nodes":"15","size_leaf_vector":"0"}},{"base_weights":[8.744324E-3,2.779835E-1,-6.390691E-2,-1.3987301E-1,2.1462058E-1,1.7893675E-1,-2.1411167E-1,-3.0011627E-1,1.4163125E-1,2.1788036E-2,-4.8358434E-1,-7.904675E-2,1.17574364E-1,-6.707894E-1,-1.9397749E-2],"categories":[],"categories_nodes":[],"categories_segments":[],"categories_sizes":[],"default_left":[false,false,false,false,false,false,true,false,false,true,true,false,false,false,false],"id":32,"left_children":[1,-1,3,5,-1,-1,7,9,-1,11,13,-1,-1,-1,-1],"loss_changes":[2.3505402E-1,0E0,2.3231864E-1,2.304399E-1,0E0,0E0,2.578864E-1,3.6428136E-1,0E0,3.9538313E-2,3.2226896E-1,0E0,0E0,0E0,0E0],"parents":[2147483647,0,0,2,2,3,3,6,6,7,7,9,9,10,10],"right_children":[2,-1,4,6,-1,-1,8,10,-1,12,14,-1,-1,-1,-1],"split_conditions":[-4.5353622E0,8.339505E-2,1.0844171E0,4.65E-1,6.4386174E-2,5.3681027E-2,5.9411323E-1,4.1819167E-1,4.2489376E-2,-5.3329957E-1,2.880117E0,-2.3714026E-2,3.527231E-2,-2.0123683E-1,-5.819325E-3],"split_indices":[22,0,3,12,0,0,8,8,0,7,13,0,0,0,0],"split_type":[0,0,0,0,0,0,0,0,0,0,0,0,0,0,0],"sum_hessian":[1.0108525E1,1.5474683E0,8.561057E0,7.117602E0,1.4434553E0,1.0779923E0,6.0396094E0,4.9896717E0,1.0499381E0,2.1313503E0,2.8583214E0,1.123449E0,1.0079012E0,1.7196897E0,1.1386316E0],"tree_param":{"num_deleted":"0","num_feature":"32","num_nodes":"15","size_leaf_vector":"0"}},{"base_weights":[1.0893372E-2,1.378013E-1,-1.7116775E-1,2.3172882E-1,-1.6674098E-1,-3.4084103E-1,1.0258053E-1,4.8175213E-1,5.7697814E-2,-4.6887463E-1,-2.8731743E-2,2.9602E-1,-2.9164046E-1,3.545233E-2,3.9954278E-1],"categories":[],"categories_nodes":[],"categories_segments":[],"categories_sizes":[],"default_left":[true,true,true,false,false,false,false,false,true,false,false,true,false,false,false],"id":33,"left_children":[1,3,5,7,-1,9,-1,-1,11,-1,-1,13,-1,-1,-1],"loss_changes":[2.766026E-1,2.390653E-1,2.6459935E-1,2.2342151E-1,0E0,1.1773914E-1,0E0,0E0,4.6432254E-1,0E0,0E0,7.202476E-2,0E0,0E0,0E0],"parents":[2147483647,0,0,1,1,2,2,3,3,5,5,8,8,11,11],"right_children":[2,4,6,8,-1,10,-1,-1,12,-1,-1,14,-1,-1,-1],"split_conditions":[1.2037444E-1,2.9856958E0,2.0401058E0,1.211E2,-5.0022297E-2,7.3367107E-1,3.0774161E-2,1.4452565E-1,4.8000002E-1,-1.406624E-1,-8.619524E-3,-1.542294E-1,-8.749214E-2,1.0635699E-2,1.1986284E-1],"split_indices":[0,13,13,15,0,4,0,0,12,0,0,0,0,0,0],"split_type":[0,0,0,0,0,0,0,0,0,0,0,0,0,0,0],"sum_hessian":[9.950679E0,6.006723E0,3.9439557E0,4.773548E0,1.2331753E0,2.2835119E0,1.6604438E0,1.2333896E0,3.5401583E0,1.2630895E0,1.0204225E0,2.1951978E0,1.3449603E0,1.0058712E0,1.1893268E0],"tree_param":{"num_deleted":"0","num_feature":"32","num_nodes":"15","size_leaf_vector":"0"}},{"base_weights":[1.0771451E-2,1.5733157E-1,-1.3058813E-1,2.6448566E-1,-1.69591E-1,-3.7457776E-1,2.213027E-3,5.9097882E-2,3.739214E-1,-2.7482677E-1,2.535186E-1],"categories":[],"categories_nodes":[],"categories_segments":[],"categories_sizes":[],"default_left":[true,true,false,true,false,false,false,false,false,false,false],"id":34,"left_children":[1,3,5,7,-1,-1,9,-1,-1,-1,-1],"loss_changes":[2.4164142E-1,2.4428988E-1,1.9455285E-1,8.305779E-2,0E0,0E0,4.0842772E-1,0E0,0E0,0E0,0E0],"parents":[2147483647,0,0,1,1,2,2,3,3,6,6],"right_children":[2,4,6,8,-1,-1,10,-1,-1,-1,-1],"split_conditions":[-6.170635E-2,1.9584506E0,1.095E0,-5.3174317E-1,-5.08773E-2,-1.1237333E-1,5.4013073E-1,1.7729366E-2,1.12176426E-1,-8.2448035E-2,7.605559E-2],"split_indices":[0,15,12,0,0,0,4,0,0,0,0],"split_type":[0,0,0,0,0,0,0,0,0,0,0],"sum_hessian":[9.671843E0,4.693099E0,4.978744E0,3.6784213E0,1.0146776E0,1.1131014E0,3.8656425E0,1.8139825E0,1.8644388E0,1.7941604E0,2.0714822E0],"tree_param":{"num_deleted":"0","num_feature":"32","num_nodes":"11","size_leaf_vector":"0"}},{"base_weights":[4.7226287E-3,9.070001E-2,-1.896755E-1,2.265082E-1,-1.6513482E-1,1.4115302E-1,-3.9641514E-1,1.811775E-2,3.883215E-1,-3.5387707E-1,1.3178058E-1,3.3252028E-1,-2.921265E-1,6.33881E-2,5.21114E-1],"categories":[],"categories_nodes":[],"categories_segments":[],"categories_sizes":[],"default_left":[true,true,false,false,false,false,false,true,false,false,false,false,false,false,false],"id":35,"left_children":[1,3,5,7,9,-1,-1,11,13,-1,-1,-1,-1,-1,-1],"loss_changes":[1.9166237E-1,3.123607E-1,2.9700178E-1,1.8149939E-1,2.3283094E-1,0E0,0E0,4.3782943E-1,1.006574E-1,0E0,0E0,0E0,0E0,0E0,0E0],"parents":[2147483647,0,0,1,1,2,2,3,3,4,4,7,7,8,8],"right_children":[2,4,6,8,10,-1,-1,12,14,-1,-1,-1,-1,-1,-1],"split_conditions":[3.7404436E-1,2.7230353E0,-1.0506375E0,7.30323E-1,1.3062825E0,4.2345908E-2,-1.1892455E-1,-1.3992035E-1,8.7E-1,-1.0616312E-1,3.9534174E-2,9.9756084E-2,-8.763795E-2,1.9016432E-2,1.563342E-1],"split_indices":[0,13,5,4,4,0,0,0,9,0,0,0,0,0,0],"split_type":[0,0,0,0,0,0,0,0,0,0,0,0,0,0,0],"sum_hessian":[9.437984E0,6.913673E0,2.5243113E0,4.591132E0,2.3225408E0,1.0928137E0,1.4314975E0,2.492782E0,2.0983503E0,1.3026386E0,1.0199021E0,1.202432E0,1.29035E0,1.0373584E0,1.0609919E0],"tree_param":{"num_deleted":"0","num_feature":"32","num_nodes":"15","size_leaf_vector":"0"}},{"base_weights":[9.051493E-3,1.2989396E-1,-1.24024525E-1,4.9088982E-1,-1.0381643E-1,-4.3432847E-1,5.7677988E-2,3.299297E-1,-4.1369632E-1,2.4530971E-1,-2.1591707E-1],"categories":[],"categories_nodes":[],"categories_segments":[],"categories_sizes":[],"default_left":[false,false,false,false,false,false,true,false,false,false,false],"id":36,"left_children":[1,3,5,-1,7,-1,9,-1,-1,-1,-1],"loss_changes":[1.7835231E-1,5.382696E-1,3.2461292E-1,0E0,7.186863E-1,0E0,2.7029976E-1,0E0,0E0,0E0,0E0],"parents":[2147483647,0,0,1,1,2,2,4,4,6,6],"right_children":[2,4,6,-1,8,-1,10,-1,-1,-1,-1],"split_conditions":[2.9651113E0,1.75473E3,9.36E3,1.4726695E-1,-5.2617776E-1,-1.3029854E-1,1.1522446E-1,9.8978914E-2,-1.241089E-1,7.3592916E-2,-6.4775124E-2],"split_indices":[13,15,15,0,7,0,0,0,0,0,0],"split_type":[0,0,0,0,0,0,0,0,0,0,0],"sum_hessian":[9.088918E0,4.7759385E0,4.312979E0,1.4444224E0,3.331516E0,1.0793625E0,3.233617E0,1.3613296E0,1.9701865E0,1.9794753E0,1.2541418E0],"tree_param":{"num_deleted":"0","num_feature":"32","num_nodes":"11","size_leaf_vector":"0"}},{"base_weights":[8.3953645E-3,9.0412684E-2,-1.807948E-1,2.0448828E-1,-1.1944207E-1,-3.6048022E-1,1.1458786E-1,1.4820046E-2,3.475482E-1,-2.3794977E-1,4.7939032E-2,2.8949368E-1,-2.4904189E-1],"categories":[],"categories_nodes":[],"categories_segments":[],"categories_sizes":[],"default_left":[true,true,true,false,false,false,false,true,false,false,false,false,false],"id":37,"left_children":[1,3,5,7,9,-1,-1,11,-1,-1,-1,-1,-1],"loss_changes":[1.6787675E-1,2.0346461E-1,2.157472E-1,1.3632189E-1,7.6172546E-2,0E0,0E0,3.1027338E-1,0E0,0E0,0E0,0E0,0E0],"parents":[2147483647,0,0,1,1,2,2,3,3,4,4,7,7],"right_children":[2,4,6,8,10,-1,-1,12,-1,-1,-1,-1,-1],"split_conditions":[3.7404436E-1,2.7230353E0,1.395E0,7.30323E-1,5.95E-1,-1.0814407E-1,3.437636E-2,-1.3992035E-1,1.0426446E-1,-7.138494E-2,1.438171E-2,8.684811E-2,-7.471257E-2],"split_indices":[0,13,12,4,12,0,0,0,0,0,0,0,0],"split_type":[0,0,0,0,0,0,0,0,0,0,0,0,0],"sum_hessian":[8.76554E0,6.4789195E0,2.2866206E0,4.2138643E0,2.265055E0,1.2847222E0,1.0018984E0,2.286296E0,1.9275684E0,1.0792964E0,1.1857587E0,1.0726027E0,1.2136933E0],"tree_param":{"num_deleted":"0","num_feature":"32","num_nodes":"13","size_leaf_vector":"0"}},{"base_weights":[5.261778E-3,1.2173813E-1,-1.21716835E-1,4.2985797E-1,-7.244234E-2,-3.862604E-1,4.4462025E-2,2.811233E-1,-3.2318124E-1,2.3496293E-1,-1.2390806E-1],"categories":[],"categories_nodes":[],"categories_segments":[],"categories_sizes":[],"default_left":[false,false,false,false,false,false,true,false,false,false,false],"id":38,"left_children":[1,3,5,-1,7,-1,9,-1,-1,-1,-1],"loss_changes":[1.5538664E-1,3.5764417E-1,2.3905696E-1,0E0,4.6348515E-1,0E0,1.5730643E-1,0E0,0E0,0E0,0E0],"parents":[2147483647,0,0,1,1,2,2,4,4,6,6],"right_children":[2,4,6,-1,8,-1,10,-1,-1,-1,-1],"split_conditions":[2.9651113E0,1.75473E3,9.36E3,1.2895739E-1,-5.2617776E-1,-1.1587812E-1,-6.170635E-2,8.4336996E-2,-9.6954376E-2,7.048888E-2,-3.7172418E-2],"split_indices":[13,15,15,0,7,0,0,0,0,0,0],"split_type":[0,0,0,0,0,0,0,0,0,0,0],"sum_hessian":[8.504329E0,4.457122E0,4.0472074E0,1.2538483E0,3.2032733E0,1.0505112E0,2.9966962E0,1.2788268E0,1.9244465E0,1.220386E0,1.7763101E0],"tree_param":{"num_deleted":"0","num_feature":"32","num_nodes":"11","size_leaf_vector":"0"}},{"base_weights":[8.656037E-3,8.8038504E-2,-1.757643E-1,1.9106384E-1,-1.3370575E-1,8.930323E-2,-3.437264E-1,1.5349741E-2,3.03745E-1,2.195698E-1,-1.9444266E-1,6.09208E-2,3.9780363E-1],"categories":[],"categories_nodes":[],"categories_segments":[],"categories_sizes":[],"default_left":[true,true,false,false,false,false,false,true,false,false,false,false,false],"id":39,"left_children":[1,3,5,7,-1,-1,-1,9,11,-1,-1,-1,-1],"loss_changes":[1.5171055E-1,1.8939047E-1,1.7022711E-1,1.00443855E-1,0E0,0E0,0E0,1.7668112E-1,4.84218E-2,0E0,0E0,0E0,0E0],"parents":[2147483647,0,0,1,1,2,2,3,3,7,7,8,8],"right_children":[2,4,6,8,-1,-1,-1,10,12,-1,-1,-1,-1],"split_conditions":[3.7404436E-1,1.2793199E0,-8.91258E-1,7.30323E-1,-4.0111728E-2,2.6790971E-2,-1.0311792E-1,-1.0740914E-1,2.831972E0,6.587094E-2,-5.83328E-2,1.827624E-2,1.193411E-1],"split_indices":[0,4,5,4,0,0,0,0,13,0,0,0,0],"split_type":[0,0,0,0,0,0,0,0,0,0,0,0,0],"sum_hessian":[8.305938E0,6.1719046E0,2.1340334E0,4.308485E0,1.8634198E0,1.0093895E0,1.1246438E0,2.1273444E0,2.1811404E0,1.0543724E0,1.072972E0,1.06902E0,1.1121205E0],"tree_param":{"num_deleted":"0","num_feature":"32","num_nodes":"13","size_leaf_vector":"0"}},{"base_weights":[9.8550115E-3,7.426669E-2,-2.0963813E-1,2.7295643E-1,-1.1764419E-1,5.391629E-1,-4.6513337E-3,-2.2088729E-1,1.276468E-1,1.9724673E-1,-2.0523567E-1,-3.612358E-1,3.626025E-2],"categories":[],"categories_nodes":[],"categories_segments":[],"categories_sizes":[],"default_left":[true,true,false,true,true,false,false,true,false,false,false,false,false],"id":40,"left_children":[1,3,-1,5,7,-1,9,11,-1,-1,-1,-1,-1],"loss_changes":[1.4439905E-1,3.288978E-1,0E0,3.0737445E-1,1.4615867E-1,0E0,1.6241512E-1,1.446285E-1,0E0,0E0,0E0,0E0,0E0],"parents":[2147483647,0,0,1,1,3,3,4,4,6,6,7,7],"right_children":[2,4,-1,6,8,-1,10,12,-1,-1,-1,-1,-1],"split_conditions":[1.75E-1,-1.0404245E-1,-6.2891446E-2,4.8000002E-1,3.837793E-3,1.6174887E-1,9.784243E-1,1.095E0,3.8294043E-2,5.917402E-2,-6.1570704E-2,-1.0837074E-1,1.0878076E-2],"split_indices":[9,0,0,12,7,0,4,12,0,0,0,0,0],"split_type":[0,0,0,0,0,0,0,0,0,0,0,0,0],"sum_hessian":[8.112366E0,6.783383E0,1.328983E0,3.125339E0,3.6580439E0,1.1144676E0,2.0108716E0,2.6444728E0,1.013571E0,1.0104467E0,1.000425E0,1.4488986E0,1.1955744E0],"tree_param":{"num_deleted":"0","num_feature":"32","num_nodes":"13","size_leaf_vector":"0"}},{"base_weights":[1.2828025E-2,2.2553447E-1,-5.2057903E-2,-2.142614E-1,7.750853E-2,7.462301E-2,-3.5812774E-1,-2.7129933E-1,2.3569582E-1,4.2098895E-1,-1.6893416E-3],"categories":[],"categories_nodes":[],"categories_segments":[],"categories_sizes":[],"default_left":[true,false,true,false,true,false,false,false,true,false,false],"id":41,"left_children":[1,-1,3,5,7,-1,-1,-1,9,-1,-1],"loss_changes":[1.3484423E-1,0E0,1.7731842E-1,1.7889833E-1,3.390327E-1,0E0,0E0,0E0,1.7512105E-1,0E0,0E0],"parents":[2147483647,0,0,2,2,3,3,4,4,8,8],"right_children":[2,-1,4,6,8,-1,-1,-1,10,-1,-1],"split_conditions":[-6.634579E-1,6.766035E-2,2.0401058E0,2.6825E0,-5.1772875E-1,2.2386905E-2,-1.07438326E-1,-8.13898E-2,-6.746934E-2,1.2629668E-1,-5.068025E-4],"split_indices":[3,0,13,10,0,0,0,0,0,0,0],"split_type":[0,0,0,0,0,0,0,0,0,0,0],"sum_hessian":[7.919464E0,1.2724171E0,6.647047E0,2.661478E0,3.9855692E0,1.0448056E0,1.6166723E0,1.0204326E0,2.9651365E0,1.2309023E0,1.7342343E0],"tree_param":{"num_deleted":"0","num_feature":"32","num_nodes":"11","size_leaf_vector":"0"}},{"base_weights":[1.3209893E-2,6.775982E-2,-1.8529749E-1,2.1195254E-1,-7.159677E-2,2.4639728E-2,3.2175863E-1,-2.7436703E-1,1.06909275E-1,-1.0864429E-1,2.6909006E-1],"categories":[],"categories_nodes":[],"categories_segments":[],"categories_sizes":[],"default_left":[true,true,false,false,false,false,false,false,true,false,false],"id":42,"left_children":[1,3,-1,5,7,-1,-1,-1,9,-1,-1],"loss_changes":[1.07103825E-1,1.6751802E-1,0E0,7.390344E-2,1.959365E-1,0E0,0E0,0E0,1.3996653E-1,0E0,0E0],"parents":[2147483647,0,0,1,1,3,3,4,4,8,8],"right_children":[2,4,-1,6,8,-1,-1,-1,10,-1,-1],"split_conditions":[4.65E-1,-3.6557354E-2,-5.5589247E-2,-5.369799E-1,7.8499997E-1,7.3919185E-3,9.652759E-2,-8.231011E-2,9.9468946E-1,-3.2593288E-2,8.072702E-2],"split_indices":[1,3,0,3,12,0,0,0,4,0,0],"split_type":[0,0,0,0,0,0,0,0,0,0,0],"sum_hessian":[7.7313623E0,6.5814342E0,1.149928E0,2.978566E0,3.6028686E0,1.5532856E0,1.4252803E0,1.4353706E0,2.1674979E0,1.0723488E0,1.095149E0],"tree_param":{"num_deleted":"0","num_feature":"32","num_nodes":"11","size_leaf_vector":"0"}},{"base_weights":[1.1774772E-2,7.2387464E-2,-1.86651E-1,2.4706435E-1,-9.231278E-2,4.7413176E-1,-1.9301455E-2,-2.1408202E-1,9.420985E-2,-2.7690673E-1,-4.598868E-2],"categories":[],"categories_nodes":[],"categories_segments":[],"categories_sizes":[],"default_left":[true,true,false,true,true,false,false,true,false,false,false],"id":43,"left_children":[1,3,-1,5,7,-1,-1,9,-1,-1,-1],"loss_changes":[1.1722344E-1,2.3357126E-1,0E0,2.4063954E-1,1.2234576E-1,0E0,0E0,1.923573E-2,0E0,0E0,0E0],"parents":[2147483647,0,0,1,1,3,3,4,4,7,7],"right_children":[2,4,-1,6,8,-1,-1,10,-1,-1,-1],"split_conditions":[1.75E-1,-1.0404245E-1,-5.5995304E-2,2.631948E0,1.095E0,1.4223954E-1,-5.7904366E-3,-4.247666E-2,2.8262956E-2,-8.307202E-2,-1.3796604E-2],"split_indices":[9,0,0,13,12,0,0,3,0,0,0],"split_type":[0,0,0,0,0,0,0,0,0,0,0],"sum_hessian":[7.6231976E0,6.3259993E0,1.2971983E0,2.8273253E0,3.4986742E0,1.1051887E0,1.7221366E0,2.0273726E0,1.4713014E0,1.0045749E0,1.0227978E0],"tree_param":{"num_deleted":"0","num_feature":"32","num_nodes":"11","size_leaf_vector":"0"}},{"base_weights":[1.0849601E-2,-1.0705858E-1,9.565969E-2,-2.7414486E-1,1.1137839E-1,2.5240016E-1,-9.729669E-2,8.3699085E-2,3.0515382E-1,8.260514E-2,-2.1831414E-1],"categories":[],"categories_nodes":[],"categories_segments":[],"categories_sizes":[],"default_left":[true,false,true,false,false,false,false,false,false,false,false],"id":44,"left_children":[1,3,5,-1,-1,7,9,-1,-1,-1,-1],"loss_changes":[9.5101975E-2,1.7733635E-1,1.8981187E-1,0E0,0E0,3.7668794E-3,8.706707E-2,0E0,0E0,0E0,0E0],"parents":[2147483647,0,0,1,1,2,2,5,5,6,6],"right_children":[2,4,6,-1,-1,8,10,-1,-1,-1,-1],"split_conditions":[-9.867514E-1,1.3062825E0,4.313398E-1,-8.224346E-2,3.341352E-2,2.5969067E-1,1.4148E3,2.5109727E-2,9.154615E-2,2.4781542E-2,-6.549425E-2],"split_indices":[7,4,8,0,0,8,15,0,0,0,0],"split_type":[0,0,0,0,0,0,0,0,0,0,0],"sum_hessian":[7.4862466E0,3.0222275E0,4.464019E0,1.5678909E0,1.4543368E0,2.293178E0,2.1708407E0,1.1624333E0,1.1307449E0,1.0006734E0,1.1701673E0],"tree_param":{"num_deleted":"0","num_feature":"32","num_nodes":"11","size_leaf_vector":"0"}},{"base_weights":[1.1277554E-2,7.896297E-2,-1.4405338E-1,1.6929188E-1,-1.067906E-1,2.5433868E-1,-5.089433E-2,3.8250944E-1,-4.7844136E-3],"categories":[],"categories_nodes":[],"categories_segments":[],"categories_sizes":[],"default_left":[true,true,false,true,false,true,false,false,false],"id":45,"left_children":[1,3,-1,5,-1,7,-1,-1,-1],"loss_changes":[9.954731E-2,1.2692559E-1,0E0,1.0192093E-1,0E0,1.2120417E-1,0E0,0E0,0E0],"parents":[2147483647,0,0,1,1,3,3,5,5],"right_children":[2,4,-1,6,-1,8,-1,-1,-1],"split_conditions":[3.7404436E-1,1.2793199E0,-4.3216016E-2,4.333501E-1,-3.2037184E-2,4.8000002E-1,-1.52683E-2,1.1475284E-1,-1.4353241E-3],"split_indices":[0,4,0,8,0,12,0,0,0],"split_type":[0,0,0,0,0,0,0,0,0],"sum_hessian":[7.38648E0,5.4871173E0,1.8993628E0,3.7514634E0,1.7356539E0,2.5943065E0,1.1571568E0,1.4171628E0,1.1771437E0],"tree_param":{"num_deleted":"0","num_feature":"32","num_nodes":"9","size_leaf_vector":"0"}},{"base_weights":[1.1480006E-2,-1.17101185E-1,9.485221E-2,9.83303E-2,-2.4784735E-1,-4.705681E-2,2.4499147E-1,2.4640922E-1,-2.561884E-1],"categories":[],"categories_nodes":[],"categories_segments":[],"categories_sizes":[],"default_left":[true,false,true,false,false,false,false,false,false],"id":46,"left_children":[1,3,5,-1,-1,7,-1,-1,-1],"loss_changes":[1.00021996E-1,1.2887138E-1,1.305051E-1,0E0,0E0,2.9079854E-1,0E0,0E0,0E0],"parents":[2147483647,0,0,1,1,2,2,5,5],"right_children":[2,4,6,-1,-1,8,-1,-1,-1],"split_conditions":[2.15E-1,2.6825E0,4.7040373E-1,2.949909E-2,-7.435421E-2,-5.2617776E-1,7.3497444E-2,7.392277E-2,-7.6856524E-2],"split_indices":[12,10,3,0,0,7,0,0,0],"split_type":[0,0,0,0,0,0,0,0,0],"sum_hessian":[7.2942057E0,2.7100534E0,4.584152E0,1.1171863E0,1.592867E0,2.709633E0,1.8745192E0,1.0533123E0,1.6563208E0],"tree_param":{"num_deleted":"0","num_feature":"32","num_nodes":"9","size_leaf_vector":"0"}},{"base_weights":[1.1784214E-2,7.00773E-2,-1.744956E-1,2.2385009E-1,-1.0259206E-1,3.6161563E-1,-5.4993562E-2,-3.0912328E-1,1.1878635E-1],"categories":[],"categories_nodes":[],"categories_segments":[],"categories_sizes":[],"default_left":[true,true,false,true,true,false,false,false,false],"id":47,"left_children":[1,3,-1,5,7,-1,-1,-1,-1],"loss_changes":[1.01305604E-1,2.0780563E-1,0E0,1.7341247E-1,2.1800481E-1,0E0,0E0,0E0,0E0],"parents":[2147483647,0,0,1,1,3,3,4,4],"right_children":[2,4,-1,6,8,-1,-1,-1,-1],"split_conditions":[1.75E-1,-6.170635E-2,-5.234868E-2,7.25E-1,2.4366999E-1,1.0848469E-1,-1.649807E-2,-9.273699E-2,3.5635907E-2],"split_indices":[9,0,0,12,8,0,0,0,0],"split_type":[0,0,0,0,0,0,0,0,0],"sum_hessian":[7.2032285E0,5.9614887E0,1.2417399E0,2.9965057E0,2.964983E0,1.8069321E0,1.1895735E0,1.328875E0,1.6361082E0],"tree_param":{"num_deleted":"0","num_feature":"32","num_nodes":"9","size_leaf_vector":"0"}},{"base_weights":[7.06178E-3,1.9183667E-1,-5.3487673E-2,2.0412743E-2,-2.2676685E-1,-8.961835E-2,2.2193936E-1,6.228667E-2,-1.761636E-1,-3.079291E-1,4.583306E-2],"categories":[],"categories_nodes":[],"categories_segments":[],"categories_sizes":[],"default_left":[false,false,true,true,false,false,false,false,true,false,false],"id":48,"left_children":[1,-1,3,5,-1,7,-1,-1,9,-1,-1],"loss_changes":[1.0021054E-1,0E0,9.2185274E-2,1.465188E-1,0E0,6.889948E-2,0E0,0E0,1.0386254E-1,0E0,0E0],"parents":[2147483647,0,0,2,2,3,3,5,5,8,8],"right_children":[2,-1,4,6,-1,8,-1,-1,10,-1,-1],"split_conditions":[-1.0506375E0,5.7551004E-2,3.1026584E-1,1.1831959E-2,-6.803006E-2,7.1500003E-1,6.658181E-2,1.8686002E-2,7.8999996E-1,-9.2378736E-2,1.3749918E-2],"split_indices":[5,0,0,0,0,12,0,0,12,0,0],"split_type":[0,0,0,0,0,0,0,0,0,0,0],"sum_hessian":[7.0398197E0,1.2023674E0,5.837452E0,4.710645E0,1.126807E0,3.4062023E0,1.3044428E0,1.3380115E0,2.068191E0,1.0549432E0,1.0132477E0],"tree_param":{"num_deleted":"0","num_feature":"32","num_nodes":"11","size_leaf_vector":"0"}},{"base_weights":[4.7237007E-3,-5.4928236E-2,1.9615363E-1,-2.453865E-1,8.5367516E-2,-4.4100508E-1,7.436612E-2,2.4494006E-1,-1.207545E-1],"categories":[],"categories_nodes":[],"categories_segments":[],"categories_sizes":[],"default_left":[false,true,false,true,true,false,false,false,false],"id":49,"left_children":[1,3,-1,5,7,-1,-1,-1,-1],"loss_changes":[1.0139163E-1,2.0348772E-1,0E0,2.3018926E-1,1.8336663E-1,0E0,0E0,0E0,0E0],"parents":[2147483647,0,0,1,1,3,3,4,4],"right_children":[2,4,-1,6,8,-1,-1,-1,-1],"split_conditions":[1.0844171E0,-9.867514E-1,5.884609E-2,2.839282E0,4.313398E-1,-1.3230152E-1,2.2309838E-2,7.348202E-2,-3.622635E-2],"split_indices":[3,7,0,13,8,0,0,0,0],"split_type":[0,0,0,0,0,0,0,0,0],"sum_hessian":[6.93554E0,5.8314514E0,1.104089E0,2.1557927E0,3.6756585E0,1.1022501E0,1.0535427E0,1.9656188E0,1.7100397E0],"tree_param":{"num_deleted":"0","num_feature":"32","num_nodes":"9","size_leaf_vector":"0"}},{"base_weights":[1.6589182E-3,1.8047763E-1,-5.3485323E-2,-1.9173554E-1,5.883282E-2,-3.085132E-1,-1.9166169E-3,1.4820103E-1,-1.15030944E-1,2.6174301E-2,2.0879604E-1],"categories":[],"categories_nodes":[],"categories_segments":[],"categories_sizes":[],"default_left":[true,false,true,true,false,false,false,true,false,false,false],"id":50,"left_children":[1,-1,3,5,7,-1,-1,9,-1,-1,-1],"loss_changes":[8.675045E-2,0E0,1.16050236E-1,7.165486E-2,8.6780556E-2,0E0,0E0,1.9684471E-2,0E0,0E0,0E0],"parents":[2147483647,0,0,2,2,3,3,4,4,7,7],"right_children":[2,-1,4,6,8,-1,-1,10,-1,-1,-1],"split_conditions":[-6.634579E-1,5.414329E-2,2.0401058E0,6.747588E-1,2.9651113E0,-9.255396E-2,-5.749851E-4,-3.376251E-1,-3.4509286E-2,7.852291E-3,6.263881E-2],"split_indices":[3,0,13,4,13,0,0,7,0,0,0],"split_type":[0,0,0,0,0,0,0,0,0,0,0],"sum_hessian":[6.8185716E0,1.0714157E0,5.747156E0,2.2592337E0,3.4879222E0,1.0115932E0,1.2476405E0,2.4012508E0,1.0866714E0,1.2718809E0,1.12937E0],"tree_param":{"num_deleted":"0","num_feature":"32","num_nodes":"11","size_leaf_vector":"0"}},{"base_weights":[8.134012E-4,-5.6934007E-2,1.5332624E-1,4.427153E-2,-1.78226E-1,-1.449475E-1,2.1327657E-1,6.576591E-2,-3.3261392E-1],"categories":[],"categories_nodes":[],"categories_segments":[],"categories_sizes":[],"default_left":[true,true,false,false,false,false,false,false,false],"id":51,"left_children":[1,3,-1,5,7,-1,-1,-1,-1],"loss_changes":[7.684305E-2,8.5703954E-2,0E0,1.6703707E-1,1.3798428E-1,0E0,0E0,0E0,0E0],"parents":[2147483647,0,0,1,1,3,3,4,4],"right_children":[2,4,-1,6,8,-1,-1,-1,-1],"split_conditions":[5.9411323E-1,-1.4094987E-2,4.5997873E-2,3.1527228E0,2.631948E0,-4.3484252E-2,6.398297E-2,1.9729774E-2,-9.978418E-2],"split_indices":[8,8,0,13,13,0,0,0,0],"split_type":[0,0,0,0,0,0,0,0,0],"sum_hessian":[6.733834E0,5.3389783E0,1.3948553E0,3.2566464E0,2.082332E0,1.6035975E0,1.653049E0,1.0294421E0,1.05289E0],"tree_param":{"num_deleted":"0","num_feature":"32","num_nodes":"9","size_leaf_vector":"0"}},{"base_weights":[-1.0111759E-3,6.614098E-2,-1.492976E-1,1.4449994E-1,-9.060389E-2,-3.6775757E-2,2.667282E-1],"categories":[],"categories_nodes":[],"categories_segments":[],"categories_sizes":[],"default_left":[true,true,false,false,false,false,false],"id":52,"left_children":[1,3,-1,5,-1,-1,-1],"loss_changes":[8.618149E-2,8.638699E-2,0E0,1.0650064E-1,0E0,0E0,0E0],"parents":[2147483647,0,0,1,1,3,3],"right_children":[2,4,-1,6,-1,-1,-1],"split_conditions":[3.7404436E-1,1.2793199E0,-4.478928E-2,7.30323E-1,-2.7181167E-2,-1.1032728E-2,8.001846E-2],"split_indices":[0,4,0,4,0,0,0],"split_type":[0,0,0,0,0,0,0],"sum_hessian":[6.6630554E0,4.967477E0,1.6955788E0,3.3639238E0,1.6035528E0,1.6362852E0,1.7276386E0],"tree_param":{"num_deleted":"0","num_feature":"32","num_nodes":"7","size_leaf_vector":"0"}},{"base_weights":[-6.956248E-4,1.714756E-1,-5.6119166E-2,-1.9478387E-1,5.0142907E-2,1.84022E-1,-2.0591822E-1,-4.7284886E-2,3.7390813E-1],"categories":[],"categories_nodes":[],"categories_segments":[],"categories_sizes":[],"default_left":[false,false,false,false,true,true,false,false,false],"id":53,"left_children":[1,-1,3,-1,5,7,-1,-1,-1],"loss_changes":[8.201484E-2,0E0,1.05430916E-1,0E0,1.9116206E-1,1.6982517E-1,0E0,0E0,0E0],"parents":[2147483647,0,0,2,2,4,4,5,5],"right_children":[2,-1,4,-1,6,8,-1,-1,-1],"split_conditions":[-1.0506375E0,5.1442683E-2,2.781753E0,-5.843516E-2,-3.239437E1,1.75E-1,-6.177547E-2,-1.4185467E-2,1.1217245E-1],"split_indices":[5,0,13,0,15,12,0,0,0],"split_type":[0,0,0,0,0,0,0,0,0],"sum_hessian":[6.586376E0,1.093998E0,5.492378E0,2.02146E0,3.4709182E0,2.4639838E0,1.0069344E0,1.4494009E0,1.0145828E0],"tree_param":{"num_deleted":"0","num_feature":"32","num_nodes":"9","size_leaf_vector":"0"}},{"base_weights":[4.0964275E-3,-5.3616766E-2,1.5125306E-1,1.0067436E-1,-1.4256173E-1,-3.4221274E-1,6.0382612E-2],"categories":[],"categories_nodes":[],"categories_segments":[],"categories_sizes":[],"default_left":[true,false,false,false,false,false,false],"id":54,"left_children":[1,3,-1,-1,5,-1,-1],"loss_changes":[7.17839E-2,9.838897E-2,0E0,0E0,1.9482058E-1,0E0,0E0],"parents":[2147483647,0,0,1,1,4,4],"right_children":[2,4,-1,-1,6,-1,-1],"split_conditions":[5.9411323E-1,4.313398E-1,4.537592E-2,3.0202309E-2,4.6900588E-1,-1.0266382E-1,1.8114785E-2],"split_indices":[8,8,0,0,3,0,0],"split_type":[0,0,0,0,0,0,0],"sum_hessian":[6.4973636E0,5.1235948E0,1.3737687E0,1.8253399E0,3.298255E0,1.3166912E0,1.9815638E0],"tree_param":{"num_deleted":"0","num_feature":"32","num_nodes":"7","size_leaf_vector":"0"}},{"base_weights":[1.759831E-3,6.826596E-2,-1.4356977E-1,1.569777E-1,-8.380759E-2,-5.0011757E-3,2.699607E-1],"categories":[],"categories_nodes":[],"categories_segments":[],"categories_sizes":[],"default_left":[true,true,false,false,false,false,false],"id":55,"left_children":[1,3,-1,5,-1,-1,-1],"loss_changes":[8.184424E-2,9.128617E-2,0E0,7.465898E-2,0E0,0E0,0E0],"parents":[2147483647,0,0,1,1,3,3],"right_children":[2,4,-1,6,-1,-1,-1],"split_conditions":[3.7404436E-1,2.7230353E0,-4.307093E-2,7.30323E-1,-2.5142277E-2,-1.5003528E-3,8.098821E-2],"split_indices":[0,13,0,4,0,0,0],"split_type":[0,0,0,0,0,0,0],"sum_hessian":[6.4538026E0,4.7914114E0,1.662391E0,3.0057602E0,1.7856513E0,1.6277953E0,1.377965E0],"tree_param":{"num_deleted":"0","num_feature":"32","num_nodes":"7","size_leaf_vector":"0"}},{"base_weights":[3.139604E-3,5.8010932E-2,-1.6630107E-1,2.1135317E-1,-1.10202156E-1,3.25483E-1,-2.8060835E-2,-2.85085E-1,8.493251E-2],"categories":[],"categories_nodes":[],"categories_segments":[],"categories_sizes":[],"default_left":[true,true,false,true,true,false,false,false,false],"id":56,"left_children":[1,3,-1,5,7,-1,-1,-1,-1],"loss_changes":[7.8311965E-2,1.8631369E-1,0E0,1.0883728E-1,1.4949524E-1,0E0,0E0,0E0,0E0],"parents":[2147483647,0,0,1,1,3,3,4,4],"right_children":[2,4,-1,6,8,-1,-1,-1,-1],"split_conditions":[1.75E-1,-6.170635E-2,-4.9890324E-2,7.25E-1,2.4366999E-1,9.76449E-2,-8.418251E-3,-8.55255E-2,2.5479754E-2],"split_indices":[9,0,0,12,8,0,0,0,0],"split_type":[0,0,0,0,0,0,0,0,0],"sum_hessian":[6.3853364E0,5.320114E0,1.0652223E0,2.648915E0,2.671199E0,1.5503548E0,1.0985603E0,1.1656022E0,1.5055969E0],"tree_param":{"num_deleted":"0","num_feature":"32","num_nodes":"9","size_leaf_vector":"0"}},{"base_weights":[-4.671401E-5,1.5582742E-1,-5.158412E-2,-1.1946771E-1,8.571961E-2,8.532207E-2,-2.1120216E-1,-3.0872396E-1,-2.4820186E-2],"categories":[],"categories_nodes":[],"categories_segments":[],"categories_sizes":[],"default_left":[false,false,true,false,false,false,true,false,false],"id":57,"left_children":[1,-1,3,5,-1,-1,7,-1,-1],"loss_changes":[6.636424E-2,0E0,6.810068E-2,1.0390595E-1,0E0,0E0,5.495718E-2,0E0,0E0],"parents":[2147483647,0,0,2,2,3,3,6,6],"right_children":[2,-1,4,6,-1,-1,8,-1,-1],"split_conditions":[-1.0506375E0,4.674823E-2,2.781753E0,4.1110244E-1,2.5715884E-2,2.559662E-2,1.1362831E-1,-9.261719E-2,-7.446056E-3],"split_indices":[5,0,13,8,0,0,3,0,0],"split_type":[0,0,0,0,0,0,0,0,0],"sum_hessian":[6.260486E0,1.0527824E0,5.207704E0,3.5717273E0,1.6359764E0,1.1265954E0,2.445132E0,1.1742942E0,1.2708378E0],"tree_param":{"num_deleted":"0","num_feature":"32","num_nodes":"9","size_leaf_vector":"0"}},{"base_weights":[-2.6107178E-4,1.5080644E-1,-5.9317723E-2,-1.8775545E-1,7.3000856E-2,1.33320885E-2,-3.1909412E-1,2.4567923E-1,-9.60893E-2],"categories":[],"categories_nodes":[],"categories_segments":[],"categories_sizes":[],"default_left":[true,false,true,true,false,false,false,false,false],"id":58,"left_children":[1,-1,3,5,7,-1,-1,-1,-1],"loss_changes":[7.329695E-2,0E0,1.1403409E-1,9.076535E-2,1.2953383E-1,0E0,0E0,0E0,0E0],"parents":[2147483647,0,0,2,2,3,3,4,4],"right_children":[2,-1,4,6,8,-1,-1,-1,-1],"split_conditions":[-6.016662E-1,4.5241933E-2,2.5276127E0,2.0926665E-1,1.0120786E0,3.9996267E-3,-9.572824E-2,7.370377E-2,-2.8826792E-2],"split_indices":[3,0,13,0,4,0,0,0,0],"split_type":[0,0,0,0,0,0,0,0,0],"sum_hessian":[6.213042E0,1.3095669E0,4.903475E0,2.2756264E0,2.6278481E0,1.2540658E0,1.0215607E0,1.076033E0,1.5518153E0],"tree_param":{"num_deleted":"0","num_feature":"32","num_nodes":"9","size_leaf_vector":"0"}},{"base_weights":[-4.4708047E-4,9.119493E-2,-8.1453025E-2,-7.747336E-2,2.2620726E-1,-1.9837669E-1,9.7221166E-2],"categories":[],"categories_nodes":[],"categories_segments":[],"categories_sizes":[],"default_left":[true,true,false,false,false,false,false],"id":59,"left_children":[1,3,5,-1,-1,-1,-1],"loss_changes":[6.0234696E-2,1.04273155E-1,1.0920274E-1,0E0,0E0,0E0,0E0],"parents":[2147483647,0,0,1,1,2,2],"right_children":[2,4,6,-1,-1,-1,-1],"split_conditions":[-3.9138976E-2,1.9057205E0,3.1565328E0,-2.3242008E-2,6.786218E-2,-5.9513006E-2,2.916635E-2],"split_indices":[3,13,13,0,0,0,0],"split_type":[0,0,0,0,0,0,0],"sum_hessian":[6.113391E0,2.8093703E0,3.304021E0,1.4384804E0,1.3708899E0,1.9304632E0,1.3735577E0],"tree_param":{"num_deleted":"0","num_feature":"32","num_nodes":"7","size_leaf_vector":"0"}},{"base_weights":[1.983647E-3,-5.1881142E-2,1.3873008E-1,-1.3885012E-1,9.877156E-2,7.004109E-2,-2.5713772E-1],"categories":[],"categories_nodes":[],"categories_segments":[],"categories_sizes":[],"default_left":[true,true,false,true,false,false,false],"id":60,"left_children":[1,3,-1,5,-1,-1,-1],"loss_changes":[5.9205156E-2,8.961787E-2,0E0,1.19035974E-1,0E0,0E0,0E0],"parents":[2147483647,0,0,1,1,3,3],"right_children":[2,4,-1,6,-1,-1,-1],"split_conditions":[5.9411323E-1,8.1E-1,4.1619025E-2,8.923685E-1,2.9631468E-2,2.1012329E-2,-7.7141315E-2],"split_indices":[8,12,0,4,0,0,0],"split_type":[0,0,0,0,0,0,0],"sum_hessian":[6.06068E0,4.793221E0,1.2674593E0,3.0885825E0,1.7046381E0,1.2641023E0,1.8244803E0],"tree_param":{"num_deleted":"0","num_feature":"32","num_nodes":"7","size_leaf_vector":"0"}},{"base_weights":[3.7125438E-3,5.5897698E-2,-1.1096738E-1,-4.908008E-2,1.6736774E-1,1.4811027E-1,-2.1692765E-1],"categories":[],"categories_nodes":[],"categories_segments":[],"categories_sizes":[],"default_left":[true,false,false,true,false,false,false],"id":61,"left_children":[1,3,-1,5,-1,-1,-1],"loss_changes":[4.8362568E-2,7.2651684E-2,0E0,1.5158354E-1,0E0,0E0,0E0],"parents":[2147483647,0,0,1,1,3,3],"right_children":[2,4,-1,6,-1,-1,-1],"split_conditions":[3.7404436E-1,4.0677744E-1,-3.3290215E-2,4.8000002E-1,5.0210323E-2,4.4433083E-2,-6.5078296E-2],"split_indices":[0,3,0,12,0,0,0],"split_type":[0,0,0,0,0,0,0],"sum_hessian":[6.044717E0,4.5065746E0,1.5381424E0,2.6091185E0,1.8974559E0,1.2537643E0,1.3553543E0],"tree_param":{"num_deleted":"0","num_feature":"32","num_nodes":"7","size_leaf_vector":"0"}},{"base_weights":[2.3318313E-3,-1.0961153E-1,7.6880194E-2,3.0813994E-2,-2.0885167E-1,1.7748977E-1,-6.86752E-2,3.2193404E-1,-4.5028973E-2],"categories":[],"categories_nodes":[],"categories_segments":[],"categories_sizes":[],"default_left":[true,true,true,false,false,false,false,false,false],"id":62,"left_children":[1,3,5,-1,-1,7,-1,-1,-1],"loss_changes":[6.663909E-2,5.1039293E-2,8.211375E-2,0E0,0E0,1.1421003E-1,0E0,0E0,0E0],"parents":[2147483647,0,0,1,1,2,2,5,5],"right_children":[2,4,6,-1,-1,8,-1,-1,-1],"split_conditions":[2.15E-1,8.2357585E-1,-5.2617776E-1,9.244199E-3,-6.26555E-2,-5.6610882E-2,-2.060256E-2,9.6580215E-2,-1.3508692E-2],"split_indices":[12,4,7,0,0,3,0,0,0],"split_type":[0,0,0,0,0,0,0,0,0],"sum_hessian":[5.9755273E0,2.200648E0,3.7748795E0,1.1967453E0,1.0039027E0,2.1023288E0,1.6725508E0,1.0038948E0,1.098434E0],"tree_param":{"num_deleted":"0","num_feature":"32","num_nodes":"9","size_leaf_vector":"0"}},{"base_weights":[3.3700329E-3,-4.8557412E-2,1.3221984E-1,-1.1827425E-1,7.630447E-2,4.6576384E-2,-2.0790347E-1],"categories":[],"categories_nodes":[],"categories_segments":[],"categories_sizes":[],"default_left":[true,true,false,true,false,false,false],"id":63,"left_children":[1,3,-1,5,-1,-1,-1],"loss_changes":[5.2769065E-2,5.8371555E-2,0E0,6.9225974E-2,0E0,0E0,0E0],"parents":[2147483647,0,0,1,1,3,3],"right_children":[2,4,-1,6,-1,-1,-1],"split_conditions":[5.9411323E-1,8.1E-1,3.9665952E-2,8.923685E-1,2.2891343E-2,1.3972916E-2,-6.2371045E-2],"split_indices":[8,12,0,4,0,0,0],"split_type":[0,0,0,0,0,0,0],"sum_hessian":[5.927203E0,4.668792E0,1.2584113E0,3.029837E0,1.6389551E0,1.2363051E0,1.7935318E0],"tree_param":{"num_deleted":"0","num_feature":"32","num_nodes":"7","size_leaf_vector":"0"}},{"base_weights":[4.5345514E-3,5.9125114E-2,-1.14971004E-1,-4.2918082E-2,1.6431238E-1,1.3148816E-1,-1.9212514E-1],"categories":[],"categories_nodes":[],"categories_segments":[],"categories_sizes":[],"default_left":[true,false,false,true,false,false,false],"id":64,"left_children":[1,3,-1,5,-1,-1,-1],"loss_changes":[5.1926404E-2,6.510789E-2,0E0,1.1733853E-1,0E0,0E0,0E0],"parents":[2147483647,0,0,1,1,3,3],"right_children":[2,4,-1,6,-1,-1,-1],"split_conditions":[3.7404436E-1,4.0677744E-1,-3.4491304E-2,4.8000002E-1,4.9293716E-2,3.944645E-2,-5.7637546E-2],"split_indices":[0,3,0,12,0,0,0],"split_type":[0,0,0,0,0,0,0],"sum_hessian":[5.917473E0,4.408779E0,1.5086937E0,2.538317E0,1.8704621E0,1.2250847E0,1.3132323E0],"tree_param":{"num_deleted":"0","num_feature":"32","num_nodes":"7","size_leaf_vector":"0"}},{"base_weights":[2.9147929E-3,-1.07881E-1,7.7204764E-2,-1.7126296E-1,1.2340562E-2,-6.643312E-2,1.6296677E-1,8.983797E-3,2.4595799E-1],"categories":[],"categories_nodes":[],"categories_segments":[],"categories_sizes":[],"default_left":[true,true,false,false,false,false,false,false,false],"id":65,"left_children":[1,3,5,-1,-1,-1,7,-1,-1],"loss_changes":[6.473677E-2,2.6251964E-2,6.854252E-2,0E0,0E0,0E0,3.8981013E-2,0E0,0E0],"parents":[2147483647,0,0,1,1,2,2,6,6],"right_children":[2,4,6,-1,-1,-1,8,-1,-1],"split_conditions":[2.15E-1,-5.4025614E-1,6.881465E-1,-5.137889E-2,3.7021688E-3,-1.9929936E-2,2.831972E0,2.6951393E-3,7.37874E-2],"split_indices":[12,7,8,0,0,0,13,0,0],"split_type":[0,0,0,0,0,0,0,0,0],"sum_hessian":[5.853084E0,2.1678295E0,3.6852546E0,1.141473E0,1.0263566E0,1.4620049E0,2.2232497E0,1.1667311E0,1.0565184E0],"tree_param":{"num_deleted":"0","num_feature":"32","num_nodes":"9","size_leaf_vector":"0"}},{"base_weights":[3.6163514E-3,6.379726E-2,-1.04826696E-1,1.5239558E-1,-1.1269353E-1,-5.0269462E-2,2.4599944E-1],"categories":[],"categories_nodes":[],"categories_segments":[],"categories_sizes":[],"default_left":[true,true,false,false,false,false,false],"id":66,"left_children":[1,3,-1,5,-1,-1,-1],"loss_changes":[5.1144764E-2,9.5397934E-2,0E0,8.361304E-2,0E0,0E0,0E0],"parents":[2147483647,0,0,1,1,3,3],"right_children":[2,4,-1,6,-1,-1,-1],"split_conditions":[6.066034E-1,4.313398E-1,-3.144801E-2,2.4362923E-1,-3.380806E-2,-1.5080839E-2,7.379983E-2],"split_indices":[3,8,0,8,0,0,0],"split_type":[0,0,0,0,0,0,0],"sum_hessian":[5.8120966E0,4.002558E0,1.809538E0,2.7557147E0,1.2468438E0,1.0169138E0,1.7388008E0],"tree_param":{"num_deleted":"0","num_feature":"32","num_nodes":"7","size_leaf_vector":"0"}},{"base_weights":[1.9367588E-3,-4.956399E-2,1.3981333E-1,1.0463113E-1,-1.6045137E-1,-2.3563446E-1,-1.2085203E-3],"categories":[],"categories_nodes":[],"categories_segments":[],"categories_sizes":[],"default_left":[false,false,false,false,true,false,false],"id":67,"left_children":[1,3,-1,-1,5,-1,-1],"loss_changes":[5.495302E-2,1.1360209E-1,0E0,0E0,4.387337E-2,0E0,0E0],"parents":[2147483647,0,0,1,1,4,4],"right_children":[2,4,-1,-1,6,-1,-1],"split_conditions":[9.4204444E-1,2.7230353E0,4.1944E-2,3.138934E-2,2.781753E0,-7.069034E-2,-3.6255608E-4],"split_indices":[3,13,0,0,13,0,0],"split_type":[0,0,0,0,0,0,0],"sum_hessian":[5.763136E0,4.6621947E0,1.1009408E0,1.9738566E0,2.6883383E0,1.5002906E0,1.1880476E0],"tree_param":{"num_deleted":"0","num_feature":"32","num_nodes":"7","size_leaf_vector":"0"}},{"base_weights":[1.7525057E-3,-9.1477506E-2,6.831558E-2,-2.2572707E-1,9.124829E-2,1.6377279E-1,-4.7070127E-2],"categories":[],"categories_nodes":[],"categories_segments":[],"categories_sizes":[],"default_left":[true,false,true,false,false,false,false],"id":68,"left_children":[1,3,5,-1,-1,-1,-1],"loss_changes":[4.802939E-2,9.9881545E-2,5.7279438E-2,0E0,0E0,0E0,0E0],"parents":[2147483647,0,0,1,1,2,2],"right_children":[2,4,6,-1,-1,-1,-1],"split_conditions":[-9.867514E-1,1.3062825E0,4.313398E-1,-6.7718126E-2,2.7374487E-2,4.913184E-2,-1.4121039E-2],"split_indices":[7,4,8,0,0,0,0],"split_type":[0,0,0,0,0,0,0],"sum_hessian":[5.7325544E0,2.2320242E0,3.5005302E0,1.1510268E0,1.0809973E0,1.6862035E0,1.8143268E0],"tree_param":{"num_deleted":"0","num_feature":"32","num_nodes":"7","size_leaf_vector":"0"}},{"base_weights":[5.3634617E-4,-5.0467163E-2,1.247975E-1,-1.6451502E-1,1.8267803E-2,-1.1529743E-1,1.9679017E-1,-8.539885E-3,-1.6359495E-1],"categories":[],"categories_nodes":[],"categories_segments":[],"categories_sizes":[],"default_left":[true,true,false,false,false,false,false,false,false],"id":69,"left_children":[1,3,-1,-1,5,7,-1,-1,-1],"loss_changes":[4.8725247E-2,4.5793198E-2,0E0,0E0,1.2535775E-1,1.4553767E-2,0E0,0E0,0E0],"parents":[2147483647,0,0,1,1,4,4,5,5],"right_children":[2,4,-1,-1,6,8,-1,-1,-1],"split_conditions":[5.9411323E-1,-5.3174317E-1,3.7439253E-2,-4.935451E-2,1.2683179E0,-5.269265E-1,5.9037056E-2,-2.5619657E-3,-4.9078487E-2],"split_indices":[8,0,0,0,7,7,0,0,0],"split_type":[0,0,0,0,0,0,0,0,0],"sum_hessian":[5.694338E0,4.45828E0,1.2360576E0,1.1525136E0,3.3057666E0,2.093573E0,1.2121934E0,1.018682E0,1.0748912E0],"tree_param":{"num_deleted":"0","num_feature":"32","num_nodes":"9","size_leaf_vector":"0"}},{"base_weights":[-1.0091919E-4,5.831946E-2,-1.2432868E-1,-4.6605054E-2,1.7710622E-1,-1.15873925E-1,6.0831077E-2],"categories":[],"categories_nodes":[],"categories_segments":[],"categories_sizes":[],"default_left":[true,true,false,false,false,false,false],"id":70,"left_children":[1,3,-1,5,-1,-1,-1],"loss_changes":[5.5557102E-2,7.316276E-2,0E0,3.351946E-2,0E0,0E0,0E0],"parents":[2147483647,0,0,1,1,3,3],"right_children":[2,4,-1,6,-1,-1,-1],"split_conditions":[3.7404436E-1,-3.0469918E-1,-3.7298605E-2,3.1527228E0,5.3131867E-2,-3.4762178E-2,1.8249324E-2],"split_indices":[0,7,0,13,0,0,0],"split_type":[0,0,0,0,0,0,0],"sum_hessian":[5.6561165E0,4.2078447E0,1.4482719E0,2.5569472E0,1.6508974E0,1.5068657E0,1.0500814E0],"tree_param":{"num_deleted":"0","num_feature":"32","num_nodes":"7","size_leaf_vector":"0"}},{"base_weights":[-2.2480624E-5,-9.258987E-2,6.391675E-2,-1.5265295E-1,1.6833363E-2,1.5812512E-1,-6.8212956E-2],"categories":[],"categories_nodes":[],"categories_segments":[],"categories_sizes":[],"default_left":[true,true,true,false,false,false,false],"id":71,"left_children":[1,3,5,-1,-1,-1,-1],"loss_changes":[4.5067694E-2,2.301423E-2,6.6849045E-2,0E0,0E0,0E0,0E0],"parents":[2147483647,0,0,1,1,2,2],"right_children":[2,4,6,-1,-1,-1,-1],"split_conditions":[2.15E-1,-5.4025614E-1,-5.2617776E-1,-4.5795888E-2,5.050009E-3,4.7437537E-2,-2.0463888E-2],"split_indices":[12,7,7,0,0,0,0],"split_type":[0,0,0,0,0,0,0],"sum_hessian":[5.614583E0,2.110719E0,3.503864E0,1.1076527E0,1.0030663E0,1.9306036E0,1.5732604E0],"tree_param":{"num_deleted":"0","num_feature":"32","num_nodes":"7","size_leaf_vector":"0"}},{"base_weights":[-1.9751068E-3,-5.230834E-2,1.3209553E-1,4.065942E-2,-2.2012228E-1,-7.761698E-2,1.2756638E-1],"categories":[],"categories_nodes":[],"categories_segments":[],"categories_sizes":[],"default_left":[false,false,false,true,false,false,false],"id":72,"left_children":[1,3,-1,5,-1,-1,-1],"loss_changes":[5.1354345E-2,9.4831765E-2,0E0,5.4989666E-2,0E0,0E0,0E0],"parents":[2147483647,0,0,1,1,3,3],"right_children":[2,4,-1,6,-1,-1,-1],"split_conditions":[9.4204444E-1,1.2793199E0,3.9628662E-2,2.0401058E0,-6.603669E-2,-2.3285095E-2,3.8269915E-2],"split_indices":[3,4,0,13,0,0,0],"split_type":[0,0,0,0,0,0,0],"sum_hessian":[5.5861406E0,4.5047846E0,1.0813558E0,3.3864348E0,1.1183501E0,1.4796264E0,1.9068083E0],"tree_param":{"num_deleted":"0","num_feature":"32","num_nodes":"7","size_leaf_vector":"0"}},{"base_weights":[-3.003443E-3,5.0255276E-2,-1.1405399E-1,-4.1578006E-2,1.5475883E-1,-1.3082345E-1,6.0683716E-2],"categories":[],"categories_nodes":[],"categories_segments":[],"categories_sizes":[],"default_left":[true,true,false,false,false,false,false],"id":73,"left_children":[1,3,-1,5,-1,-1,-1],"loss_changes":[4.4508364E-2,5.5621497E-2,0E0,4.0029556E-2,0E0,0E0,0E0],"parents":[2147483647,0,0,1,1,3,3],"right_children":[2,4,-1,6,-1,-1,-1],"split_conditions":[3.7404436E-1,-3.0469918E-1,-3.42162E-2,2.662654E-1,4.642765E-2,-3.9247036E-2,1.8205116E-2],"split_indices":[0,7,0,3,0,0,0],"split_type":[0,0,0,0,0,0,0],"sum_hessian":[5.5562844E0,4.125292E0,1.4309925E0,2.5162532E0,1.6090387E0,1.1944966E0,1.3217566E0],"tree_param":{"num_deleted":"0","num_feature":"32","num_nodes":"7","size_leaf_vector":"0"}},{"base_weights":[-3.36508E-3,-4.852107E-2,1.1784644E-1,8.977141E-2,-1.3580047E-1,3.1403236E-2,-2.2329731E-1],"categories":[],"categories_nodes":[],"categories_segments":[],"categories_sizes":[],"default_left":[false,false,false,false,false,false,false],"id":74,"left_children":[1,3,-1,-1,5,-1,-1],"loss_changes":[4.137847E-2,7.8035355E-2,0E0,0E0,6.1762817E-2,0E0,0E0],"parents":[2147483647,0,0,1,1,4,4],"right_children":[2,4,-1,-1,6,-1,-1],"split_conditions":[9.4204444E-1,4.551336E-1,3.5353933E-2,2.6931426E-2,7.05E-1,9.420971E-3,-6.69892E-2],"split_indices":[3,8,0,0,12,0,0],"split_type":[0,0,0,0,0,0,0],"sum_hessian":[5.515194E0,4.4551697E0,1.0600244E0,1.7127688E0,2.7424006E0,1.1623259E0,1.5800749E0],"tree_param":{"num_deleted":"0","num_feature":"32","num_nodes":"7","size_leaf_vector":"0"}},{"base_weights":[-1.6088008E-3,-8.631088E-2,5.8603216E-2,-2.178793E-1,8.698811E-2,-1.3209811E-1,1.5419029E-1,4.8067877E-3,2.376271E-1],"categories":[],"categories_nodes":[],"categories_segments":[],"categories_sizes":[],"default_left":[false,true,true,false,false,false,true,false,false],"id":75,"left_children":[1,3,5,-1,-1,-1,7,-1,-1],"loss_changes":[3.8153213E-2,8.964968E-2,1.0036416E-1,0E0,0E0,0E0,4.1044466E-2,0E0,0E0],"parents":[2147483647,0,0,1,1,2,2,6,6],"right_children":[2,4,6,-1,-1,-1,8,-1,-1],"split_conditions":[6.424849E-1,2.0401058E0,-5.088644E-1,-6.5363795E-2,2.6096433E-2,-3.9629433E-2,1.75E-1,1.4420364E-3,7.128813E-2],"split_indices":[4,13,0,0,0,0,12,0,0],"split_type":[0,0,0,0,0,0,0,0,0],"sum_hessian":[5.489133E0,2.1006436E0,3.3884892E0,1.0478625E0,1.0527812E0,1.0038294E0,2.3846598E0,1.233621E0,1.1510388E0],"tree_param":{"num_deleted":"0","num_feature":"32","num_nodes":"9","size_leaf_vector":"0"}},{"base_weights":[-1.9239242E-3,1.15094565E-1,-4.8055973E-2,-1.5617962E-1,4.4000074E-2,-1.1068376E-1,1.5243961E-1],"categories":[],"categories_nodes":[],"categories_segments":[],"categories_sizes":[],"default_left":[false,false,false,false,true,false,false],"id":76,"left_children":[1,-1,3,-1,5,-1,-1],"loss_changes":[4.025325E-2,0E0,5.9812292E-2,0E0,7.8148425E-2,0E0,0E0],"parents":[2147483647,0,0,2,2,4,4],"right_children":[2,-1,4,-1,6,-1,-1],"split_conditions":[-5.6956756E-1,3.452837E-2,2.801057E0,-4.685389E-2,-1.5650322E-1,-3.320513E-2,4.5731883E-2],"split_indices":[5,0,13,0,0,0,0],"split_type":[0,0,0,0,0,0,0],"sum_hessian":[5.4320717E0,1.1132668E0,4.3188047E0,1.6657461E0,2.6530588E0,1.0848608E0,1.568198E0],"tree_param":{"num_deleted":"0","num_feature":"32","num_nodes":"7","size_leaf_vector":"0"}},{"base_weights":[-1.2031585E-3,8.504078E-2,-8.288031E-2,1.8152755E-1,-5.3000536E-2,-1.8316469E-1,5.8940772E-2],"categories":[],"categories_nodes":[],"categories_segments":[],"categories_sizes":[],"default_left":[true,false,true,false,false,false,false],"id":77,"left_children":[1,3,5,-1,-1,-1,-1],"loss_changes":[5.2110635E-2,5.7638578E-2,6.4727195E-2,0E0,0E0,0E0,0E0],"parents":[2147483647,0,0,1,1,2,2],"right_children":[2,4,6,-1,-1,-1,-1],"split_conditions":[-6.170635E-2,3.1222992E0,-3.327373E-1,5.4458268E-2,-1.5900161E-2,-5.4949407E-2,1.7682232E-2],"split_indices":[0,13,7,0,0,0,0],"split_type":[0,0,0,0,0,0,0],"sum_hessian":[5.3971343E0,2.6051457E0,2.7919884E0,1.3479474E0,1.2571985E0,1.4647304E0,1.3272581E0],"tree_param":{"num_deleted":"0","num_feature":"32","num_nodes":"7","size_leaf_vector":"0"}},